432 100
</s> 0.063026 0.13098 -0.10374 -0.040621 -0.14601 -0.047855 -0.0090965 -0.11392 0.043542 0.036396 0.062696 0.1532 0.037419 0.12409 -0.14215 -0.075697 -0.0094379 0.068604 -0.078937 -0.099727 -0.077354 0.095963 0.039757 -0.025841 -0.33878 0.032243 0.26681 -0.1074 0.063971 0.036662 -0.16307 0.075336 -0.070221 -0.05635 -0.071891 -0.10595 0.18455 -0.074602 -0.0916 0.092614 0.40012 0.14885 0.079493 -0.0012821 0.02063 -0.27429 -0.12684 0.094085 -0.24707 -0.095351 -0.0041091 0.11235 -0.23991 -0.052263 -0.048301 -0.29231 -0.022818 0.12388 0.10074 0.15971 -0.085349 0.050203 0.22811 0.21294 -0.27241 0.14379 0.13534 -0.030785 -0.006336 0.12356 -0.11181 -0.093545 0.15034 0.13175 -0.13189 0.18518 0.1786 0.15796 0.050548 -0.053613 -0.009089 0.070213 -0.015268 -0.33982 0.23539 0.079137 0.12421 0.032484 -0.13187 -0.033806 0.19717 -0.065948 0.2473 0.10481 -0.11786 -0.24743 -0.058958 -0.053551 -0.053046 0.15334 
@EPFL 0.070239 0.11929 -0.095468 -0.034305 -0.14425 -0.047838 -0.011163 -0.11416 0.028297 0.027099 0.059964 0.14076 0.026073 0.11104 -0.13327 -0.071591 -0.0098278 0.060692 -0.079299 -0.08682 -0.069221 0.084371 0.03602 -0.020135 -0.3276 0.038885 0.24849 -0.095527 0.06562 0.025836 -0.14945 0.076826 -0.055578 -0.047211 -0.058987 -0.10186 0.17409 -0.051794 -0.082288 0.097605 0.37524 0.14207 0.076214 0.0014834 0.026528 -0.26782 -0.11463 0.090152 -0.23444 -0.09625 0.0042843 0.094158 -0.22024 -0.05715 -0.042201 -0.27654 -0.023165 0.11873 0.091344 0.14977 -0.080094 0.047662 0.21378 0.19753 -0.25916 0.13738 0.13348 -0.036466 -0.01346 0.11325 -0.093792 -0.093722 0.15188 0.12859 -0.12676 0.18345 0.16105 0.14404 0.048546 -0.04682 -0.0026177 0.061602 -0.023346 -0.32139 0.23809 0.084708 0.11809 0.032245 -0.12479 -0.026867 0.18352 -0.069925 0.23207 0.11667 -0.11716 -0.23014 -0.064554 -0.058779 -0.041905 0.15477 
the 0.10563 0.12867 -0.094393 -0.06272 -0.15086 -0.066661 -0.0057759 -0.13371 0.021999 0.036062 0.053917 0.16553 0.017266 0.12206 -0.15105 -0.08538 0.012789 0.082732 -0.079674 -0.081019 -0.076622 0.07664 0.024653 -0.024094 -0.37671 0.041728 0.27979 -0.099898 0.085446 0.02552 -0.14658 0.081565 -0.077212 -0.05029 -0.074902 -0.11213 0.2077 -0.076901 -0.08463 0.10197 0.40505 0.15658 0.097417 -0.014471 0.03027 -0.28139 -0.12607 0.095444 -0.24183 -0.10878 0.037027 0.095999 -0.24033 -0.071446 -0.053423 -0.31022 0.0046117 0.11629 0.07932 0.15786 -0.090907 0.059731 0.24373 0.22066 -0.3202 0.1484 0.13574 -0.024303 -0.024717 0.1257 -0.090926 -0.12836 0.16652 0.15721 -0.12772 0.20202 0.18311 0.16719 0.060859 -0.041747 -0.0050062 0.077115 -0.044456 -0.36164 0.27271 0.091338 0.16504 0.052407 -0.12847 -0.020064 0.18597 -0.07848 0.23798 0.1489 -0.10325 -0.26774 -0.061187 -0.059608 -0.024461 0.17985 
to 0.093347 0.13164 -0.099967 -0.050167 -0.15548 -0.060008 -0.0060616 -0.12468 0.024718 0.037032 0.056083 0.1647 0.020314 0.12297 -0.14326 -0.084008 0.006407 0.0776 -0.081361 -0.087575 -0.070683 0.083255 0.033601 -0.01897 -0.371 0.036083 0.27878 -0.1032 0.070065 0.017005 -0.15164 0.075041 -0.071985 -0.051708 -0.072352 -0.10231 0.20485 -0.077992 -0.087941 0.1041 0.39737 0.14982 0.089036 -0.015848 0.029544 -0.28814 -0.1193 0.095437 -0.25062 -0.10293 0.017674 0.10537 -0.24029 -0.073854 -0.052047 -0.30814 -0.010443 0.11824 0.085544 0.15587 -0.094512 0.055969 0.23977 0.21115 -0.30587 0.14789 0.13991 -0.030606 -0.017728 0.11995 -0.089794 -0.11114 0.16467 0.15194 -0.12758 0.2045 0.17869 0.16991 0.056778 -0.043462 -0.0042118 0.074902 -0.033261 -0.34645 0.26436 0.0829 0.15328 0.044357 -0.13273 -0.023622 0.19246 -0.078952 0.23793 0.1324 -0.11255 -0.25348 -0.065948 -0.064455 -0.039699 0.17057 
@EPFL_en 0.077982 0.12584 -0.097697 -0.043824 -0.15254 -0.055607 -0.010591 -0.12187 0.029929 0.02881 0.062977 0.15481 0.027147 0.1217 -0.14075 -0.078596 -0.0050957 0.06763 -0.08391 -0.089761 -0.073317 0.087498 0.035723 -0.021039 -0.35563 0.037206 0.27034 -0.10209 0.070556 0.025113 -0.15376 0.079982 -0.067104 -0.050273 -0.063651 -0.109 0.19259 -0.066218 -0.088335 0.10392 0.40251 0.15142 0.087297 -0.0042717 0.029376 -0.28384 -0.12118 0.099776 -0.25186 -0.10347 0.013319 0.10431 -0.23385 -0.065484 -0.048413 -0.30026 -0.018202 0.1223 0.09285 0.16082 -0.086413 0.053784 0.23008 0.21159 -0.28522 0.14646 0.14168 -0.036389 -0.018164 0.12334 -0.098264 -0.10571 0.15984 0.14012 -0.13536 0.20125 0.17493 0.15678 0.052627 -0.046447 -0.00055965 0.070962 -0.028746 -0.34086 0.2556 0.085091 0.13858 0.038719 -0.13175 -0.026729 0.1917 -0.076186 0.24663 0.12948 -0.11789 -0.25144 -0.069572 -0.064699 -0.045679 0.1654 
of 0.088218 0.12742 -0.09632 -0.049907 -0.15202 -0.056348 -0.016601 -0.12194 0.023215 0.036515 0.064002 0.15998 0.025196 0.12119 -0.14601 -0.082585 -4.0765e-05 0.071096 -0.086654 -0.08772 -0.0819 0.088748 0.034431 -0.023403 -0.36208 0.040839 0.27538 -0.10869 0.067575 0.026309 -0.15684 0.078808 -0.073384 -0.050342 -0.066642 -0.11097 0.19149 -0.077397 -0.089412 0.10906 0.40035 0.1476 0.092607 -0.0037377 0.031318 -0.2859 -0.12593 0.09731 -0.24641 -0.10344 0.015225 0.098688 -0.2411 -0.063059 -0.051398 -0.30627 -0.0059541 0.1226 0.086786 0.15769 -0.093288 0.052591 0.23767 0.21436 -0.29248 0.14861 0.13982 -0.035088 -0.026077 0.12575 -0.099137 -0.10587 0.16579 0.14324 -0.13019 0.19917 0.18423 0.15947 0.04995 -0.042774 0.0052083 0.076588 -0.035803 -0.34627 0.26583 0.09049 0.14274 0.044068 -0.13288 -0.023966 0.18903 -0.079605 0.23494 0.13165 -0.1175 -0.24779 -0.069071 -0.062833 -0.046471 0.16716 
and 0.086338 0.12673 -0.09699 -0.052198 -0.15306 -0.060388 -0.005356 -0.12439 0.024565 0.032731 0.065693 0.16034 0.024123 0.12071 -0.13948 -0.083766 0.0011761 0.076576 -0.080783 -0.090115 -0.072147 0.091302 0.032501 -0.023343 -0.37377 0.040792 0.27186 -0.099084 0.069642 0.02383 -0.15348 0.077155 -0.076316 -0.048328 -0.069009 -0.10427 0.20329 -0.0757 -0.084331 0.10451 0.40577 0.15121 0.092668 -0.011545 0.029461 -0.2898 -0.12408 0.099414 -0.25208 -0.11003 0.024277 0.11295 -0.23736 -0.069855 -0.054273 -0.31141 -0.010525 0.11743 0.089839 0.16125 -0.087361 0.062146 0.23477 0.21242 -0.29833 0.15772 0.14275 -0.032693 -0.017543 0.12867 -0.098239 -0.11083 0.16612 0.14997 -0.13238 0.209 0.18404 0.16281 0.056612 -0.047919 0.0035633 0.075644 -0.035669 -0.35003 0.26139 0.086542 0.15687 0.03676 -0.13554 -0.022937 0.19293 -0.081889 0.24301 0.13254 -0.12038 -0.25815 -0.068818 -0.069059 -0.046322 0.16739 
in 0.085226 0.13251 -0.096552 -0.0529 -0.15017 -0.066074 -0.0084675 -0.12592 0.035147 0.026361 0.072347 0.16555 0.025095 0.12987 -0.14124 -0.084236 0.0034876 0.078879 -0.084409 -0.095199 -0.077753 0.091881 0.028174 -0.023417 -0.37566 0.029605 0.27719 -0.10707 0.07144 0.016381 -0.15955 0.083619 -0.071354 -0.053172 -0.074388 -0.11235 0.20342 -0.08234 -0.087622 0.10804 0.41308 0.15182 0.093678 -0.0059122 0.030315 -0.29292 -0.11998 0.095454 -0.26415 -0.1051 0.023531 0.11971 -0.24476 -0.07056 -0.054793 -0.31606 -0.0079677 0.123 0.096986 0.16706 -0.089033 0.056134 0.23954 0.21876 -0.29662 0.15801 0.14882 -0.034501 -0.022215 0.12389 -0.095235 -0.10701 0.17076 0.15079 -0.13302 0.21755 0.17646 0.16861 0.053562 -0.039167 -0.00034557 0.0757 -0.031276 -0.35086 0.26981 0.091564 0.15757 0.042668 -0.13331 -0.02947 0.19656 -0.079521 0.24917 0.14032 -0.12369 -0.26892 -0.073944 -0.070612 -0.048145 0.16425 
a 0.088709 0.12258 -0.092831 -0.050291 -0.15155 -0.06692 -0.014012 -0.12694 0.023605 0.023225 0.053415 0.16082 0.022071 0.12914 -0.14475 -0.089238 0.0054153 0.074878 -0.073018 -0.086959 -0.082726 0.089734 0.035791 -0.025637 -0.35756 0.03314 0.27365 -0.11449 0.078775 0.025548 -0.14811 0.084615 -0.062389 -0.052964 -0.075043 -0.10357 0.19952 -0.068315 -0.086809 0.10887 0.40308 0.1453 0.095423 -0.0074708 0.028038 -0.28689 -0.12303 0.094553 -0.25217 -0.10127 0.012683 0.10677 -0.24124 -0.059814 -0.047511 -0.29885 -0.016208 0.11714 0.094061 0.16188 -0.091527 0.050881 0.24034 0.22673 -0.2954 0.14178 0.15404 -0.041959 -0.025387 0.11944 -0.095583 -0.1067 0.15969 0.14095 -0.1271 0.20873 0.16853 0.16252 0.059807 -0.03843 0.0026403 0.073889 -0.02642 -0.34914 0.25984 0.086675 0.14666 0.037278 -0.12817 -0.020137 0.19169 -0.070981 0.2518 0.13724 -0.11895 -0.25705 -0.070813 -0.054478 -0.044673 0.16781 
de 0.056349 0.11434 -0.10407 -0.01774 -0.15033 -0.030715 -0.0202 -0.10233 0.045711 0.016929 0.0694 0.12872 0.03675 0.11411 -0.13399 -0.069629 -0.033201 0.043569 -0.074489 -0.10123 -0.077692 0.090673 0.037999 -0.01197 -0.3192 0.039553 0.25872 -0.094551 0.05122 0.029778 -0.16714 0.08359 -0.039223 -0.053575 -0.050246 -0.096005 0.16209 -0.04469 -0.094091 0.10533 0.38978 0.1334 0.060111 0.013792 0.014171 -0.27975 -0.1199 0.1005 -0.24644 -0.087929 -0.027546 0.094721 -0.22605 -0.047233 -0.043932 -0.26289 -0.044708 0.13169 0.11607 0.16444 -0.069908 0.03187 0.20581 0.19288 -0.23331 0.13986 0.15057 -0.050262 -0.002245 0.11019 -0.10914 -0.073725 0.14309 0.11334 -0.13973 0.17872 0.15446 0.13518 0.058828 -0.061418 -0.0011318 0.052097 -0.0073521 -0.31096 0.21734 0.080504 0.086304 0.011385 -0.11874 -0.037812 0.19009 -0.062643 0.24431 0.087452 -0.13334 -0.21981 -0.074913 -0.060527 -0.049858 0.14055 
for 0.083967 0.13039 -0.10381 -0.043363 -0.15179 -0.061816 -0.011995 -0.12324 0.027958 0.030109 0.057958 0.15988 0.023727 0.12152 -0.14721 -0.080285 0.0010673 0.072713 -0.081575 -0.082608 -0.075174 0.085588 0.026311 -0.021786 -0.37125 0.036563 0.27663 -0.10991 0.073509 0.025142 -0.15203 0.078576 -0.073939 -0.054754 -0.070595 -0.11218 0.19095 -0.07207 -0.085347 0.10044 0.39612 0.1491 0.086265 -0.0081977 0.030631 -0.27964 -0.1231 0.098301 -0.24423 -0.10284 0.018061 0.10222 -0.23331 -0.062428 -0.051195 -0.29996 -0.01224 0.11753 0.087894 0.15384 -0.08189 0.050626 0.23766 0.21294 -0.29284 0.1533 0.13727 -0.032452 -0.019713 0.12341 -0.10005 -0.10881 0.16403 0.14432 -0.12974 0.20229 0.17606 0.15909 0.054494 -0.039663 0.00034946 0.068181 -0.032163 -0.34534 0.26235 0.091451 0.14215 0.044463 -0.12971 -0.025475 0.18369 -0.07846 0.23743 0.12674 -0.11771 -0.25195 -0.063145 -0.067288 -0.044911 0.17038 
at 0.091173 0.13276 -0.097428 -0.053589 -0.15301 -0.058111 -0.0043344 -0.1239 0.024584 0.030149 0.057132 0.16779 0.028595 0.12351 -0.14082 -0.087776 0.0049254 0.073337 -0.089288 -0.089661 -0.075513 0.090425 0.031258 -0.021607 -0.38204 0.039466 0.27838 -0.10476 0.070962 0.020907 -0.15506 0.087576 -0.07238 -0.058426 -0.076284 -0.10736 0.2015 -0.068051 -0.086493 0.10735 0.41041 0.15008 0.088933 -0.010378 0.032317 -0.28908 -0.12305 0.097894 -0.25179 -0.10838 0.021279 0.10698 -0.24309 -0.071891 -0.049634 -0.31145 -0.0095179 0.12332 0.090017 0.15962 -0.08849 0.054551 0.24444 0.22081 -0.3054 0.15619 0.14768 -0.030511 -0.024661 0.1236 -0.10146 -0.11444 0.17119 0.15631 -0.13841 0.21427 0.18486 0.17107 0.061236 -0.048512 0.0017337 0.072701 -0.038991 -0.3514 0.26756 0.087323 0.15648 0.044692 -0.13306 -0.028109 0.20151 -0.075697 0.24291 0.141 -0.12074 -0.2562 -0.071466 -0.072307 -0.045197 0.17533 
on 0.086281 0.12916 -0.10201 -0.047722 -0.15108 -0.060302 -0.015169 -0.12178 0.032043 0.030099 0.060996 0.16054 0.030673 0.12193 -0.14105 -0.080701 -0.0049622 0.068607 -0.086642 -0.090948 -0.072223 0.090813 0.034176 -0.022527 -0.36382 0.031497 0.27701 -0.099099 0.068794 0.026613 -0.15598 0.081234 -0.062388 -0.047438 -0.068236 -0.10713 0.19514 -0.07042 -0.088478 0.10779 0.40679 0.14944 0.089024 -0.013339 0.034349 -0.29218 -0.12957 0.097699 -0.24469 -0.10149 0.017086 0.10337 -0.24039 -0.067053 -0.055014 -0.30201 -0.019138 0.12095 0.091137 0.15575 -0.083072 0.054847 0.2415 0.21299 -0.29812 0.15475 0.13816 -0.040561 -0.018559 0.12382 -0.10034 -0.1085 0.1724 0.15101 -0.13059 0.20198 0.17979 0.15942 0.050424 -0.04002 -0.0038449 0.068805 -0.030275 -0.35092 0.26105 0.086279 0.15002 0.039882 -0.13382 -0.0295 0.19067 -0.080225 0.24108 0.12575 -0.11498 -0.25633 -0.063805 -0.065407 -0.049318 0.16962 
#epfl 0.07643 0.1237 -0.099366 -0.040588 -0.15081 -0.053751 -0.0098853 -0.1227 0.031348 0.025185 0.067635 0.15211 0.023787 0.11872 -0.14447 -0.072788 -0.008427 0.068112 -0.084312 -0.089795 -0.074919 0.089818 0.031829 -0.018797 -0.34849 0.039833 0.26915 -0.098016 0.071857 0.021914 -0.15065 0.081866 -0.064657 -0.053116 -0.063825 -0.10344 0.18389 -0.064761 -0.09287 0.099649 0.3988 0.14348 0.078959 -0.0028247 0.025893 -0.28349 -0.12014 0.099292 -0.24386 -0.10338 0.0087358 0.10404 -0.23058 -0.060295 -0.049182 -0.29489 -0.025287 0.12109 0.092093 0.15935 -0.083676 0.044158 0.22582 0.21246 -0.27698 0.14986 0.14387 -0.039845 -0.016921 0.12011 -0.10544 -0.10201 0.15997 0.13602 -0.13132 0.19798 0.17113 0.15051 0.056624 -0.048931 0.0028193 0.068857 -0.027778 -0.33482 0.2498 0.088516 0.12971 0.034768 -0.12803 -0.025827 0.19089 -0.073487 0.23719 0.12154 -0.11873 -0.24467 -0.068407 -0.064754 -0.045627 0.16358 
with 0.086537 0.13217 -0.098632 -0.048893 -0.15616 -0.062071 -0.0080077 -0.12555 0.02931 0.035053 0.066187 0.16466 0.026757 0.12995 -0.14666 -0.085532 -0.0019492 0.073479 -0.084927 -0.09324 -0.079402 0.092912 0.033714 -0.025052 -0.37734 0.039688 0.28174 -0.11235 0.076155 0.025241 -0.15488 0.082373 -0.073283 -0.055494 -0.069011 -0.11099 0.1982 -0.074844 -0.092955 0.10625 0.41546 0.15621 0.088668 -0.0087006 0.028563 -0.29557 -0.12886 0.10459 -0.25419 -0.10588 0.015006 0.11501 -0.24289 -0.071223 -0.052009 -0.31654 -0.017405 0.12573 0.094153 0.16573 -0.092199 0.056739 0.23941 0.2242 -0.3008 0.15578 0.15256 -0.035387 -0.0193 0.1253 -0.1005 -0.10891 0.16728 0.15025 -0.1375 0.21131 0.18851 0.16535 0.05765 -0.045552 0.0043986 0.075167 -0.032228 -0.35601 0.26431 0.089513 0.14846 0.038049 -0.13491 -0.027948 0.19664 -0.078571 0.25088 0.13179 -0.12565 -0.26289 -0.069194 -0.066964 -0.048754 0.1751 
via 0.075581 0.12334 -0.098839 -0.043982 -0.14967 -0.050055 -0.010498 -0.11921 0.031932 0.027823 0.062652 0.1519 0.025426 0.12174 -0.13639 -0.072693 -0.0051169 0.068434 -0.083711 -0.093148 -0.071371 0.082741 0.033471 -0.015569 -0.34353 0.037025 0.26355 -0.10015 0.063809 0.02276 -0.14832 0.078649 -0.062193 -0.052972 -0.065348 -0.10288 0.18451 -0.068942 -0.085407 0.099594 0.38819 0.14356 0.077279 -0.0060456 0.025063 -0.27458 -0.1178 0.095455 -0.23947 -0.098109 0.0067395 0.10911 -0.23396 -0.064882 -0.048181 -0.28824 -0.013554 0.11801 0.09326 0.15315 -0.080961 0.048282 0.21919 0.20665 -0.2758 0.14006 0.13974 -0.029788 -0.018101 0.1181 -0.099222 -0.098544 0.15316 0.13305 -0.13055 0.193 0.17342 0.15195 0.053897 -0.04951 0.0021481 0.069829 -0.028479 -0.3326 0.2471 0.086044 0.13127 0.03036 -0.1309 -0.024991 0.1858 -0.069629 0.23601 0.11886 -0.11757 -0.24228 -0.064667 -0.062565 -0.046073 0.15647 
is 0.089254 0.13252 -0.09768 -0.05045 -0.15292 -0.063119 -0.015577 -0.12481 0.033923 0.032012 0.065213 0.16541 0.015594 0.12014 -0.14258 -0.082935 0.0015542 0.078331 -0.085351 -0.08701 -0.073974 0.089623 0.035309 -0.019124 -0.36812 0.039153 0.27485 -0.1022 0.077444 0.018748 -0.15112 0.077231 -0.069768 -0.055596 -0.071632 -0.10622 0.20096 -0.073196 -0.085825 0.10375 0.40084 0.14798 0.08933 -0.0072122 0.028344 -0.28272 -0.12398 0.097767 -0.24239 -0.10623 0.020105 0.10402 -0.23695 -0.070206 -0.04732 -0.30271 -0.0084723 0.11622 0.088938 0.15368 -0.083655 0.046274 0.23508 0.21745 -0.29132 0.15387 0.1447 -0.039302 -0.024221 0.1285 -0.10188 -0.11315 0.16472 0.14794 -0.1309 0.20872 0.17456 0.15768 0.062254 -0.040215 -0.0050765 0.076621 -0.033352 -0.34442 0.26666 0.09222 0.1421 0.038419 -0.12532 -0.020809 0.19361 -0.073991 0.2392 0.13993 -0.11675 -0.25752 -0.068981 -0.063844 -0.039724 0.17224 
la 0.05629 0.1176 -0.098909 -0.026445 -0.14498 -0.041722 -0.015944 -0.0991 0.041962 0.015817 0.066326 0.1334 0.023346 0.10928 -0.12423 -0.068185 -0.019865 0.046958 -0.079002 -0.095765 -0.078073 0.088277 0.032534 -0.018525 -0.31904 0.037254 0.24767 -0.09478 0.052131 0.027291 -0.15379 0.068814 -0.045884 -0.047714 -0.056063 -0.090674 0.16049 -0.050742 -0.085949 0.090017 0.37189 0.12899 0.065411 0.010798 0.01801 -0.26297 -0.10967 0.097528 -0.23268 -0.089121 -0.017799 0.098064 -0.21993 -0.048569 -0.042061 -0.26203 -0.037371 0.11765 0.10341 0.14964 -0.075251 0.036849 0.19872 0.1952 -0.23714 0.1376 0.14184 -0.040921 -0.0093746 0.11211 -0.1042 -0.07522 0.14525 0.11392 -0.12684 0.17533 0.1465 0.13271 0.05328 -0.042207 0.0026893 0.055819 -0.013228 -0.30698 0.22386 0.080757 0.099448 0.018608 -0.119 -0.034923 0.18632 -0.065397 0.22851 0.094742 -0.11753 -0.21048 -0.066403 -0.056861 -0.050262 0.13931 
à 0.057347 0.127 -0.10455 -0.031118 -0.14773 -0.041936 -0.02801 -0.098254 0.046852 0.019928 0.060465 0.13891 0.034362 0.11776 -0.12895 -0.06544 -0.032254 0.049057 -0.078035 -0.10254 -0.083227 0.095632 0.033988 -0.0083216 -0.32176 0.038385 0.26261 -0.10716 0.051432 0.019883 -0.1641 0.068505 -0.04504 -0.046551 -0.060634 -0.095452 0.16704 -0.054408 -0.094616 0.10479 0.38521 0.13117 0.059606 0.011949 0.023534 -0.27967 -0.12953 0.10453 -0.24077 -0.093097 -0.027437 0.10757 -0.23431 -0.045053 -0.049809 -0.26182 -0.04644 0.1305 0.11711 0.15668 -0.062312 0.030858 0.21542 0.2043 -0.24345 0.13807 0.15304 -0.047696 -0.0095291 0.10834 -0.11255 -0.072084 0.15118 0.11024 -0.13239 0.17722 0.15963 0.1362 0.04888 -0.062438 0.0029045 0.051209 -0.014339 -0.3117 0.23314 0.089228 0.09628 0.020512 -0.11643 -0.035685 0.19371 -0.068584 0.2437 0.088624 -0.12833 -0.2244 -0.077964 -0.061346 -0.057134 0.14369 
- 0.07503 0.12163 -0.09168 -0.041067 -0.14639 -0.047894 -0.0062693 -0.12431 0.032125 0.029314 0.063658 0.14722 0.030344 0.11885 -0.13558 -0.078704 -0.0076141 0.061241 -0.084207 -0.095875 -0.068618 0.090811 0.038112 -0.025233 -0.35499 0.032614 0.27194 -0.099237 0.073783 0.029269 -0.14669 0.083146 -0.062794 -0.045345 -0.065022 -0.10814 0.17824 -0.064262 -0.08869 0.096587 0.39833 0.14992 0.083166 -0.0007818 0.034435 -0.27973 -0.12555 0.091223 -0.24543 -0.10905 0.014382 0.11249 -0.23001 -0.060575 -0.053918 -0.30088 -0.017512 0.11499 0.092551 0.15566 -0.090062 0.048129 0.22154 0.21524 -0.27355 0.15025 0.14909 -0.034514 -0.020131 0.12941 -0.10638 -0.10645 0.16236 0.13549 -0.1388 0.20194 0.17583 0.15538 0.054866 -0.041568 0.0020165 0.071864 -0.031869 -0.34008 0.25344 0.091256 0.12978 0.032122 -0.12695 -0.028843 0.18989 -0.077512 0.24462 0.11441 -0.12428 -0.24567 -0.071677 -0.063235 -0.052151 0.16422 
by 0.082916 0.13048 -0.10233 -0.039359 -0.15342 -0.052388 -0.0068385 -0.12277 0.03463 0.031615 0.0642 0.1591 0.026468 0.12376 -0.13656 -0.078379 0.002281 0.068984 -0.077219 -0.090604 -0.078567 0.087332 0.038079 -0.018464 -0.36231 0.036481 0.27547 -0.1089 0.069651 0.022174 -0.15194 0.075987 -0.070102 -0.051029 -0.072261 -0.10555 0.19325 -0.066894 -0.082206 0.10634 0.40023 0.14643 0.087698 -0.011163 0.026065 -0.27964 -0.12397 0.097192 -0.25173 -0.098562 0.018847 0.10107 -0.23866 -0.064755 -0.04737 -0.30196 -0.011697 0.12137 0.091288 0.15636 -0.082288 0.046473 0.23343 0.21348 -0.2904 0.14984 0.14479 -0.035095 -0.018937 0.12102 -0.097777 -0.10428 0.16279 0.14717 -0.13072 0.20431 0.17518 0.16124 0.050905 -0.045801 -0.0031311 0.071274 -0.028915 -0.34551 0.26034 0.087778 0.14351 0.046009 -0.12788 -0.02917 0.19195 -0.069786 0.24475 0.12868 -0.12225 -0.25347 -0.065554 -0.06722 -0.052392 0.16653 
#EPFL 0.073286 0.13114 -0.1031 -0.0382 -0.15666 -0.055181 -0.012256 -0.12478 0.033153 0.025358 0.067433 0.15447 0.028231 0.12516 -0.14315 -0.0765 -0.0085851 0.062789 -0.081687 -0.094683 -0.078775 0.092448 0.036797 -0.019656 -0.36114 0.040567 0.27204 -0.10524 0.067514 0.027553 -0.16068 0.084625 -0.062068 -0.053382 -0.066219 -0.10888 0.18752 -0.064748 -0.091782 0.10739 0.4099 0.15154 0.082468 -0.0015671 0.029988 -0.29242 -0.12662 0.099726 -0.25553 -0.10564 0.0043074 0.10909 -0.24022 -0.063315 -0.048229 -0.3061 -0.023382 0.12885 0.099979 0.1651 -0.084685 0.049976 0.22983 0.21282 -0.28373 0.15384 0.14873 -0.039659 -0.016362 0.12389 -0.10778 -0.096028 0.16157 0.13467 -0.13762 0.20041 0.17622 0.15824 0.056152 -0.048273 0.0002821 0.069276 -0.026403 -0.34679 0.25736 0.093225 0.12979 0.031834 -0.13379 -0.029049 0.19962 -0.075584 0.25224 0.12277 -0.12989 -0.25054 -0.07174 -0.063996 -0.048152 0.16369 
et 0.059018 0.11889 -0.098736 -0.028379 -0.1473 -0.038073 -0.012194 -0.10718 0.040437 0.021679 0.069425 0.13579 0.02497 0.11407 -0.13306 -0.062461 -0.022563 0.056152 -0.077203 -0.091211 -0.079757 0.094308 0.036278 -0.013468 -0.32544 0.04027 0.25331 -0.095128 0.055174 0.022342 -0.15567 0.078905 -0.044568 -0.043287 -0.056631 -0.090301 0.16375 -0.050725 -0.083496 0.10288 0.37806 0.13075 0.059689 0.0036761 0.022539 -0.27325 -0.12044 0.093573 -0.23369 -0.091851 -0.015909 0.098526 -0.22075 -0.043544 -0.045677 -0.26408 -0.039198 0.12197 0.10701 0.15568 -0.072201 0.036249 0.2032 0.20049 -0.24552 0.1289 0.14407 -0.043867 -0.0055977 0.10532 -0.10299 -0.080419 0.14253 0.11842 -0.13301 0.17734 0.15737 0.12803 0.050409 -0.051414 -0.0025011 0.058297 -0.014376 -0.31186 0.22071 0.08764 0.098472 0.014791 -0.11919 -0.032376 0.18098 -0.068813 0.2295 0.091949 -0.12219 -0.22116 -0.070231 -0.058384 -0.049502 0.14903 
from 0.079983 0.12657 -0.096684 -0.04668 -0.15484 -0.053698 -0.0097446 -0.12399 0.03146 0.023726 0.06098 0.15383 0.021188 0.12194 -0.1416 -0.076128 -0.0014039 0.070754 -0.086027 -0.088472 -0.077477 0.087396 0.033056 -0.017675 -0.36018 0.035479 0.27086 -0.10472 0.073235 0.021271 -0.15206 0.076501 -0.065947 -0.052387 -0.062865 -0.10413 0.19477 -0.070307 -0.086254 0.0988 0.39964 0.14702 0.083255 -0.0090717 0.026094 -0.28224 -0.1164 0.099961 -0.24115 -0.10389 0.014905 0.10029 -0.23641 -0.062244 -0.049993 -0.29725 -0.018279 0.11762 0.089778 0.15864 -0.085052 0.049244 0.22996 0.21243 -0.28706 0.14792 0.14346 -0.036885 -0.018882 0.12338 -0.095844 -0.10409 0.15671 0.14042 -0.13136 0.19698 0.17025 0.15506 0.053429 -0.043382 0.00052347 0.065351 -0.027955 -0.33754 0.25701 0.086394 0.14064 0.03505 -0.12947 -0.026245 0.18618 -0.075929 0.23405 0.12657 -0.11409 -0.2469 -0.068073 -0.06229 -0.046945 0.16762 
&amp; 0.079579 0.125 -0.10089 -0.040462 -0.15519 -0.056698 -0.0096634 -0.12269 0.035163 0.027578 0.066101 0.1558 0.023696 0.1195 -0.14298 -0.076674 -0.0048876 0.067172 -0.082689 -0.088848 -0.074452 0.09136 0.031551 -0.02016 -0.35595 0.036471 0.2712 -0.10613 0.06915 0.026138 -0.15337 0.077236 -0.063804 -0.053115 -0.066114 -0.10716 0.18915 -0.068488 -0.086834 0.10353 0.39562 0.14349 0.083566 -0.0075569 0.030733 -0.28301 -0.12066 0.09943 -0.24248 -0.10184 0.010979 0.1045 -0.23196 -0.063162 -0.0488 -0.29419 -0.020313 0.1171 0.092505 0.15657 -0.086814 0.04558 0.22642 0.21043 -0.28262 0.14914 0.14162 -0.039229 -0.013813 0.12243 -0.10078 -0.1045 0.15915 0.13855 -0.13441 0.19536 0.17184 0.1572 0.055489 -0.048389 0.0015668 0.070217 -0.02992 -0.33985 0.25345 0.087945 0.13534 0.03515 -0.12589 -0.027175 0.1928 -0.075509 0.24194 0.12309 -0.11489 -0.24672 -0.067367 -0.065372 -0.047261 0.16624 
les 0.057727 0.11613 -0.096768 -0.020826 -0.15135 -0.041197 -0.01898 -0.10486 0.038733 0.020951 0.061157 0.13522 0.029761 0.10819 -0.12859 -0.064786 -0.025628 0.049294 -0.0728 -0.09646 -0.07632 0.093096 0.036366 -0.011988 -0.31078 0.035494 0.2459 -0.10224 0.049781 0.026286 -0.15699 0.075559 -0.048702 -0.047371 -0.05374 -0.10054 0.16139 -0.051668 -0.086962 0.094869 0.37175 0.13173 0.065409 0.0063074 0.014007 -0.26181 -0.11646 0.092468 -0.23031 -0.086062 -0.016008 0.092456 -0.22205 -0.041348 -0.046744 -0.25539 -0.038519 0.11716 0.10823 0.15186 -0.068926 0.031661 0.20377 0.19419 -0.23818 0.1303 0.1418 -0.043655 -0.0063577 0.1047 -0.10561 -0.069858 0.14251 0.11306 -0.13193 0.17722 0.155 0.13418 0.054354 -0.056945 -0.0033333 0.05265 -0.012903 -0.2992 0.21562 0.081783 0.091494 0.0152 -0.11563 -0.03392 0.18734 -0.067535 0.23345 0.091119 -0.1228 -0.21775 -0.069991 -0.059971 -0.051608 0.14202 
des 0.058938 0.12323 -0.099211 -0.020741 -0.15642 -0.037106 -0.020749 -0.10426 0.045348 0.017535 0.068947 0.13716 0.027021 0.11799 -0.12812 -0.066981 -0.029481 0.048341 -0.073787 -0.098603 -0.078677 0.097457 0.039076 -0.011375 -0.32106 0.041362 0.25228 -0.099277 0.050795 0.025185 -0.16914 0.082374 -0.040452 -0.044665 -0.056209 -0.097769 0.16431 -0.047323 -0.090155 0.10104 0.38119 0.13289 0.058784 0.011117 0.01565 -0.27738 -0.12275 0.10241 -0.23726 -0.083398 -0.029984 0.099568 -0.2285 -0.044003 -0.045647 -0.26403 -0.041068 0.12405 0.11861 0.15592 -0.067934 0.02993 0.21217 0.19658 -0.23692 0.1381 0.14756 -0.046185 -0.0030899 0.10723 -0.11218 -0.071641 0.14768 0.11297 -0.13764 0.17671 0.15517 0.13789 0.055513 -0.057808 0.0011905 0.055851 -0.014385 -0.30581 0.2228 0.080993 0.093918 0.010148 -0.12061 -0.032811 0.19716 -0.067237 0.24203 0.090393 -0.1313 -0.2213 -0.074203 -0.061127 -0.04827 0.14583 
pour 0.061693 0.11285 -0.095067 -0.025549 -0.13891 -0.038286 -0.011023 -0.10065 0.036337 0.021902 0.060593 0.13183 0.027938 0.1063 -0.12558 -0.066706 -0.020855 0.046426 -0.07104 -0.08644 -0.072624 0.082401 0.034681 -0.013601 -0.31081 0.038211 0.24428 -0.094025 0.055915 0.028832 -0.15288 0.077431 -0.047424 -0.048181 -0.052351 -0.095259 0.15597 -0.051471 -0.083004 0.087736 0.36202 0.12799 0.062745 0.0058957 0.017138 -0.2577 -0.11062 0.091121 -0.22324 -0.089316 -0.013066 0.092125 -0.21549 -0.049665 -0.042393 -0.25422 -0.033907 0.11409 0.099874 0.14689 -0.070036 0.032646 0.20069 0.18838 -0.23605 0.13066 0.13615 -0.040978 -0.0069527 0.10613 -0.09958 -0.078166 0.137 0.11093 -0.12524 0.17101 0.15162 0.12797 0.050112 -0.050054 0.0044819 0.054635 -0.015304 -0.29885 0.21417 0.082136 0.09657 0.022245 -0.11343 -0.030635 0.17872 -0.063758 0.22148 0.092848 -0.11593 -0.21215 -0.062416 -0.056165 -0.041904 0.14159 
le 0.055141 0.12236 -0.10056 -0.020946 -0.15661 -0.038748 -0.022928 -0.11196 0.036345 0.021928 0.070411 0.1438 0.028924 0.11334 -0.13244 -0.074136 -0.022988 0.052169 -0.082111 -0.099679 -0.083928 0.099914 0.036444 -0.013376 -0.33433 0.034896 0.25908 -0.10832 0.058379 0.032649 -0.16446 0.083413 -0.046086 -0.050609 -0.05669 -0.10566 0.16735 -0.057983 -0.089008 0.10312 0.3993 0.13442 0.061147 0.0031159 0.0232 -0.2778 -0.11588 0.099495 -0.24527 -0.095706 -0.018244 0.10025 -0.23228 -0.045735 -0.046949 -0.26411 -0.042978 0.1205 0.11766 0.15891 -0.077711 0.032021 0.20927 0.20381 -0.24854 0.13493 0.14726 -0.045672 -0.010722 0.11047 -0.11141 -0.072696 0.14548 0.1157 -0.13599 0.18351 0.15971 0.13783 0.052676 -0.059867 -0.0057256 0.053676 -0.012123 -0.32143 0.22872 0.08942 0.10099 0.0188 -0.12648 -0.026835 0.19662 -0.065173 0.24746 0.10338 -0.12747 -0.23184 -0.072674 -0.068571 -0.047764 0.14982 
en 0.048497 0.11171 -0.092828 -0.027954 -0.1419 -0.038387 -0.014941 -0.10211 0.03834 0.018459 0.068516 0.12838 0.022004 0.1107 -0.11039 -0.063416 -0.022603 0.043982 -0.073136 -0.0886 -0.076167 0.086376 0.032911 -0.012211 -0.30989 0.034082 0.24325 -0.093216 0.053862 0.023634 -0.14835 0.07732 -0.051824 -0.051773 -0.054392 -0.089955 0.15973 -0.06487 -0.078108 0.089419 0.36225 0.12724 0.066598 0.0040294 0.018359 -0.25501 -0.11387 0.095214 -0.22241 -0.087369 -0.004981 0.10386 -0.20837 -0.044565 -0.044248 -0.25357 -0.036742 0.10905 0.096318 0.14896 -0.069746 0.04376 0.1928 0.19125 -0.2376 0.1296 0.13432 -0.042872 -0.0058904 0.10154 -0.093459 -0.080544 0.13507 0.10409 -0.12728 0.17716 0.1518 0.13279 0.045416 -0.050216 0.0083369 0.059406 -0.012367 -0.29551 0.2149 0.072714 0.10527 0.019052 -0.1158 -0.033997 0.17642 -0.067011 0.22411 0.097095 -0.11157 -0.21216 -0.060285 -0.058802 -0.056542 0.14045 
! 0.0741 0.1182 -0.099947 -0.039135 -0.15883 -0.056781 -0.019445 -0.11485 0.031785 0.030371 0.06591 0.14346 0.026827 0.11916 -0.13206 -0.080153 -0.017281 0.06944 -0.084005 -0.091561 -0.075254 0.096894 0.03021 -0.020999 -0.34539 0.03798 0.26343 -0.09845 0.070749 0.027454 -0.16439 0.078428 -0.061779 -0.046413 -0.054555 -0.10031 0.18794 -0.062923 -0.083539 0.10134 0.39154 0.14606 0.074958 -2.3478e-05 0.020698 -0.28244 -0.12218 0.10346 -0.2365 -0.10407 0.0013562 0.10595 -0.23384 -0.063636 -0.053757 -0.28615 -0.02935 0.12666 0.099857 0.16366 -0.074257 0.047615 0.22515 0.21239 -0.26986 0.15254 0.14732 -0.039822 -0.016161 0.11842 -0.10561 -0.093646 0.1613 0.13162 -0.13696 0.19269 0.17252 0.14894 0.058373 -0.058827 0.00071035 0.063578 -0.021982 -0.33132 0.24777 0.091932 0.12205 0.029954 -0.1333 -0.032295 0.1899 -0.076861 0.24335 0.10961 -0.12328 -0.23355 -0.067716 -0.068239 -0.054611 0.15012 
The 0.077905 0.129 -0.099941 -0.044556 -0.15208 -0.062211 -0.011675 -0.1253 0.032637 0.025481 0.058856 0.16014 0.02463 0.12195 -0.14495 -0.078836 -0.0026875 0.068349 -0.084711 -0.094303 -0.074519 0.085628 0.033262 -0.017127 -0.35604 0.035472 0.26807 -0.10783 0.07633 0.025507 -0.14607 0.078088 -0.066863 -0.054141 -0.069348 -0.10592 0.19117 -0.071631 -0.085943 0.10279 0.40039 0.14689 0.087196 -0.0063824 0.030457 -0.27935 -0.11911 0.090953 -0.24304 -0.10782 0.017477 0.10656 -0.23431 -0.064665 -0.04986 -0.30119 -0.014907 0.11984 0.090637 0.15601 -0.086053 0.045322 0.22857 0.21355 -0.28953 0.14661 0.14006 -0.035162 -0.01318 0.12486 -0.10101 -0.10471 0.16309 0.14491 -0.13184 0.19949 0.17419 0.15224 0.056672 -0.046675 0.0026891 0.076656 -0.026786 -0.33722 0.25595 0.089755 0.13723 0.036337 -0.12826 -0.021145 0.19029 -0.080331 0.23704 0.12726 -0.11845 -0.24751 -0.064338 -0.058388 -0.048442 0.16898 
you 0.091832 0.1337 -0.10111 -0.052765 -0.16323 -0.067409 -0.0076393 -0.13062 0.026777 0.034335 0.071755 0.17254 0.022326 0.12664 -0.14989 -0.084518 0.0033002 0.078107 -0.086517 -0.089825 -0.076677 0.095415 0.034896 -0.027163 -0.38134 0.043909 0.29041 -0.11226 0.077221 0.022032 -0.16326 0.091494 -0.080012 -0.056021 -0.072231 -0.11557 0.20688 -0.075906 -0.094243 0.10413 0.42273 0.15854 0.090648 -0.0085545 0.030322 -0.30431 -0.12994 0.10191 -0.25857 -0.11015 0.018888 0.11281 -0.25216 -0.069272 -0.05569 -0.32238 -0.010763 0.12571 0.096078 0.17137 -0.087872 0.054512 0.24495 0.22356 -0.30996 0.15914 0.15161 -0.03523 -0.01315 0.12724 -0.099816 -0.11706 0.17432 0.14977 -0.14146 0.20553 0.18571 0.17265 0.059617 -0.045639 -0.00014404 0.076088 -0.032408 -0.36039 0.26854 0.0932 0.14862 0.043373 -0.13177 -0.026784 0.19859 -0.08199 0.24964 0.1347 -0.12565 -0.26241 -0.071824 -0.065209 -0.042945 0.17463 
are 0.083801 0.12777 -0.095868 -0.042271 -0.15472 -0.063299 -0.012882 -0.11914 0.030798 0.031492 0.063717 0.15453 0.028255 0.12926 -0.14188 -0.081633 -0.0065383 0.065747 -0.080521 -0.09491 -0.082312 0.096985 0.03311 -0.022495 -0.36949 0.039469 0.27821 -0.10815 0.072576 0.024775 -0.15845 0.083829 -0.065443 -0.05128 -0.067135 -0.10513 0.19427 -0.07297 -0.089978 0.10463 0.41438 0.15215 0.087427 -0.0035583 0.030648 -0.29236 -0.12711 0.10268 -0.25532 -0.10822 0.014731 0.1106 -0.24094 -0.066206 -0.053477 -0.30662 -0.019434 0.12723 0.099227 0.1663 -0.089607 0.046155 0.2359 0.21952 -0.29636 0.15512 0.15169 -0.042102 -0.018509 0.12238 -0.10476 -0.10422 0.1637 0.14641 -0.13714 0.20276 0.17727 0.16024 0.057619 -0.049524 -0.0010774 0.076251 -0.030532 -0.35451 0.25966 0.088368 0.14127 0.036528 -0.12775 -0.027544 0.19536 -0.075454 0.25245 0.13232 -0.12702 -0.25593 -0.072713 -0.068059 -0.044898 0.16754 
an 0.079089 0.12774 -0.094828 -0.049307 -0.15468 -0.06473 -0.004271 -0.12486 0.028842 0.029142 0.070746 0.16179 0.026355 0.13021 -0.13862 -0.076414 0.003313 0.072879 -0.079667 -0.092932 -0.071345 0.095839 0.034249 -0.021613 -0.37686 0.041954 0.27785 -0.10534 0.074673 0.024105 -0.15739 0.079784 -0.075798 -0.052362 -0.069528 -0.1117 0.19994 -0.084582 -0.095222 0.10567 0.41093 0.15207 0.095918 -0.0084317 0.027961 -0.29491 -0.12285 0.10043 -0.2531 -0.10163 0.025206 0.11502 -0.2476 -0.065146 -0.049515 -0.3122 -0.016045 0.12235 0.089764 0.16495 -0.085203 0.05946 0.2413 0.21834 -0.29278 0.15809 0.14228 -0.04129 -0.017635 0.12478 -0.10364 -0.11277 0.16953 0.14576 -0.13885 0.2016 0.17541 0.16985 0.059273 -0.045722 0.0077804 0.069903 -0.03786 -0.3506 0.2662 0.089207 0.1566 0.036866 -0.13819 -0.029055 0.18764 -0.077253 0.24572 0.13309 -0.11717 -0.26193 -0.06912 -0.068611 -0.055765 0.16845 
our 0.085766 0.13278 -0.10463 -0.043271 -0.16527 -0.054005 -0.014635 -0.12334 0.037845 0.032912 0.072677 0.16044 0.029025 0.13252 -0.14687 -0.081512 -0.011893 0.06193 -0.089198 -0.094764 -0.082979 0.097293 0.037101 -0.020054 -0.3791 0.043975 0.29258 -0.11501 0.069936 0.027911 -0.17004 0.082587 -0.064653 -0.051316 -0.071008 -0.11518 0.19813 -0.066385 -0.095991 0.11056 0.43241 0.16098 0.079604 -0.0023197 0.02713 -0.30517 -0.1323 0.10361 -0.26403 -0.10598 0.0020641 0.11508 -0.25259 -0.069233 -0.054782 -0.31628 -0.023639 0.13126 0.10565 0.17196 -0.087339 0.043641 0.24486 0.22647 -0.29829 0.15626 0.15531 -0.041322 -0.0091083 0.12744 -0.11009 -0.10539 0.17113 0.14281 -0.14665 0.20763 0.18153 0.16589 0.057502 -0.054957 3.7896e-06 0.072602 -0.028883 -0.36124 0.26512 0.097532 0.13621 0.032422 -0.13835 -0.031425 0.20996 -0.078593 0.2628 0.12847 -0.13217 -0.26249 -0.072677 -0.065799 -0.050578 0.17492 
#VDtech 0.071876 0.11747 -0.091336 -0.038306 -0.14149 -0.05157 -0.0099025 -0.11125 0.029045 0.025491 0.059721 0.14655 0.024374 0.11178 -0.1329 -0.072203 -0.0056736 0.06286 -0.076282 -0.084813 -0.07164 0.084796 0.030875 -0.020583 -0.33367 0.033171 0.25047 -0.097544 0.063251 0.024404 -0.14499 0.073576 -0.060836 -0.046905 -0.058125 -0.10072 0.17532 -0.064933 -0.084548 0.096214 0.37509 0.13607 0.079864 -0.0056164 0.025164 -0.26525 -0.1133 0.09088 -0.23291 -0.096188 0.011263 0.098623 -0.21866 -0.056445 -0.045847 -0.27561 -0.018949 0.11319 0.088234 0.14835 -0.078767 0.04434 0.21347 0.19968 -0.26145 0.13808 0.13493 -0.034674 -0.013983 0.11355 -0.093447 -0.095524 0.15184 0.12913 -0.12866 0.18579 0.16071 0.14458 0.051647 -0.044977 0.0002276 0.065063 -0.024454 -0.31714 0.23497 0.079805 0.1257 0.031139 -0.12095 -0.025388 0.17989 -0.072656 0.22981 0.11764 -0.11109 -0.23043 -0.061218 -0.060001 -0.045985 0.15318 
that 0.095046 0.13292 -0.09234 -0.052947 -0.15889 -0.061086 -0.0093943 -0.12723 0.024253 0.033192 0.062169 0.16784 0.025813 0.12701 -0.15679 -0.083746 0.0077716 0.077523 -0.083223 -0.090569 -0.078084 0.088975 0.031403 -0.024805 -0.37799 0.044181 0.28326 -0.10632 0.078934 0.021732 -0.15294 0.081641 -0.077939 -0.05123 -0.073663 -0.11611 0.20916 -0.074254 -0.092617 0.10553 0.42012 0.15867 0.093018 -0.010382 0.031978 -0.29852 -0.1297 0.10149 -0.25556 -0.1072 0.025471 0.10898 -0.24963 -0.070913 -0.053087 -0.31737 -0.0075717 0.12504 0.091245 0.16587 -0.090606 0.060195 0.24712 0.22582 -0.31465 0.1526 0.14726 -0.032645 -0.022898 0.12815 -0.099276 -0.11613 0.16861 0.15352 -0.13875 0.20532 0.18683 0.17415 0.061577 -0.046452 0.00049414 0.07426 -0.036322 -0.35937 0.27145 0.088526 0.15814 0.045354 -0.1341 -0.023231 0.1991 -0.080685 0.24991 0.14488 -0.12051 -0.27005 -0.064276 -0.067142 -0.038539 0.17819 
du 0.061615 0.11846 -0.094511 -0.036392 -0.14198 -0.040817 -0.017199 -0.10602 0.036489 0.021381 0.061349 0.13718 0.026193 0.11401 -0.12292 -0.065133 -0.013531 0.051572 -0.079852 -0.088554 -0.065486 0.080489 0.029074 -0.017949 -0.31759 0.035437 0.24921 -0.096643 0.055528 0.024361 -0.14919 0.076226 -0.051791 -0.049639 -0.061991 -0.096977 0.16696 -0.059911 -0.087373 0.090662 0.36643 0.12591 0.070177 0.0019274 0.017797 -0.26356 -0.10954 0.093607 -0.22174 -0.084181 -0.0078555 0.094363 -0.21503 -0.048511 -0.04269 -0.26207 -0.029836 0.11819 0.094896 0.14346 -0.06989 0.036765 0.20469 0.19185 -0.24182 0.13155 0.1378 -0.041531 -0.010125 0.11103 -0.093876 -0.082275 0.14065 0.12237 -0.12514 0.17514 0.1575 0.13282 0.050346 -0.052111 0.0053161 0.056163 -0.01368 -0.31026 0.22275 0.08575 0.10424 0.02228 -0.11674 -0.025309 0.18244 -0.064121 0.2238 0.10188 -0.11647 -0.2242 -0.066074 -0.057697 -0.041405 0.14106 
sur 0.058913 0.11415 -0.092232 -0.025329 -0.13878 -0.037563 -0.018822 -0.10439 0.036215 0.019296 0.062156 0.13752 0.023238 0.11053 -0.12503 -0.068738 -0.020689 0.052169 -0.069398 -0.089808 -0.07505 0.086732 0.037224 -0.015286 -0.31086 0.03673 0.24358 -0.098364 0.055246 0.026753 -0.14928 0.073924 -0.051251 -0.046909 -0.054162 -0.093044 0.15569 -0.0526 -0.081697 0.09133 0.36047 0.12847 0.061425 0.0010318 0.020836 -0.25618 -0.11481 0.091048 -0.22839 -0.088168 -0.010034 0.099375 -0.21253 -0.049217 -0.044756 -0.25651 -0.027655 0.112 0.098441 0.14489 -0.0698 0.036648 0.20214 0.19093 -0.2379 0.1264 0.13546 -0.038006 -0.0068823 0.10389 -0.097495 -0.082799 0.13975 0.11549 -0.12598 0.17361 0.14832 0.12997 0.051184 -0.043876 3.0371e-05 0.056131 -0.017633 -0.30059 0.21816 0.080024 0.10387 0.022378 -0.1177 -0.028428 0.17555 -0.062058 0.2225 0.099882 -0.11976 -0.21863 -0.065372 -0.058788 -0.046897 0.14321 
be 0.091822 0.12878 -0.10087 -0.050722 -0.14992 -0.058893 -0.014679 -0.11932 0.033882 0.033656 0.065776 0.164 0.022376 0.12304 -0.1514 -0.080884 0.0017831 0.074416 -0.07809 -0.084685 -0.080731 0.095749 0.02996 -0.025675 -0.37048 0.042636 0.27395 -0.11185 0.076037 0.022527 -0.16006 0.083903 -0.071568 -0.049144 -0.077007 -0.11235 0.20026 -0.07968 -0.097304 0.10446 0.41246 0.15537 0.089077 -0.011311 0.032938 -0.29073 -0.13145 0.099364 -0.252 -0.10364 0.022726 0.11036 -0.23626 -0.072376 -0.052303 -0.31585 -0.016823 0.12553 0.086636 0.16613 -0.087907 0.052388 0.24252 0.22045 -0.2983 0.15401 0.14542 -0.034804 -0.018756 0.12409 -0.10087 -0.10618 0.1688 0.15377 -0.1355 0.19567 0.18298 0.1659 0.060248 -0.048218 -0.0054772 0.069138 -0.032214 -0.34855 0.26374 0.093362 0.15104 0.037443 -0.13712 -0.02778 0.19375 -0.082884 0.24283 0.12809 -0.12096 -0.26051 -0.065724 -0.06184 -0.041682 0.17522 
EPFL 0.074296 0.12539 -0.09929 -0.036558 -0.1533 -0.05371 -0.010073 -0.1198 0.028715 0.028373 0.062019 0.15258 0.026863 0.12006 -0.14198 -0.075186 -0.010408 0.063933 -0.076291 -0.089497 -0.074788 0.086612 0.03905 -0.017006 -0.34954 0.039363 0.26723 -0.10026 0.069188 0.025066 -0.15637 0.082322 -0.064011 -0.049988 -0.064307 -0.10625 0.18591 -0.064119 -0.088723 0.10382 0.39834 0.14785 0.081684 -0.00026076 0.027169 -0.28478 -0.1239 0.093095 -0.24519 -0.10272 0.0060718 0.10257 -0.23457 -0.061041 -0.045773 -0.29588 -0.021643 0.12732 0.097973 0.15813 -0.084111 0.045923 0.22679 0.20999 -0.27545 0.14846 0.14278 -0.037443 -0.013774 0.12085 -0.10189 -0.098801 0.15893 0.13895 -0.13521 0.19291 0.17456 0.15316 0.052686 -0.045561 -0.0012418 0.066937 -0.026609 -0.34096 0.24889 0.090139 0.13122 0.033683 -0.12978 -0.027633 0.19155 -0.077565 0.2455 0.12263 -0.12582 -0.24648 -0.069136 -0.064377 -0.04714 0.16175 
@epfl 0.079601 0.12532 -0.10181 -0.04017 -0.15868 -0.054649 -0.010994 -0.12576 0.034866 0.024553 0.067413 0.15536 0.024174 0.11897 -0.14518 -0.077852 -0.0074788 0.065498 -0.087283 -0.093305 -0.077529 0.091858 0.032843 -0.02249 -0.3554 0.044238 0.27947 -0.10111 0.07024 0.022924 -0.15496 0.079633 -0.063448 -0.058311 -0.063552 -0.10941 0.19073 -0.063794 -0.092292 0.10166 0.40636 0.14572 0.078333 0.0017367 0.027972 -0.28971 -0.11931 0.10138 -0.24726 -0.10414 0.0055445 0.10173 -0.23728 -0.060501 -0.049562 -0.30145 -0.025639 0.12652 0.093376 0.16253 -0.082895 0.043883 0.22929 0.21617 -0.28558 0.14867 0.14747 -0.03837 -0.015017 0.12501 -0.10538 -0.10618 0.16391 0.13676 -0.1368 0.19781 0.17421 0.15244 0.058324 -0.051677 0.00060206 0.06987 -0.027473 -0.34293 0.257 0.092582 0.12778 0.033553 -0.13351 -0.025722 0.19493 -0.075444 0.24363 0.12206 -0.12103 -0.24958 -0.06693 -0.064719 -0.047867 0.17071 
about 0.085897 0.13282 -0.10017 -0.049937 -0.16232 -0.05649 -0.010703 -0.12328 0.030687 0.028582 0.068628 0.16348 0.025708 0.12507 -0.14628 -0.083479 -0.0023321 0.07214 -0.085268 -0.095752 -0.081107 0.092978 0.035225 -0.018731 -0.3783 0.040342 0.2854 -0.11126 0.07514 0.022642 -0.16523 0.082154 -0.072774 -0.050531 -0.071329 -0.11431 0.20454 -0.074404 -0.091872 0.10921 0.42216 0.15331 0.089269 -0.00602 0.026985 -0.29894 -0.1291 0.10538 -0.25806 -0.10801 0.017327 0.10764 -0.24816 -0.064338 -0.05357 -0.31882 -0.016366 0.13084 0.09564 0.1665 -0.088439 0.055024 0.24173 0.22463 -0.30291 0.15603 0.14986 -0.036108 -0.017901 0.12642 -0.10189 -0.11155 0.16705 0.14956 -0.13837 0.20826 0.18542 0.16851 0.053888 -0.049437 9.6305e-05 0.073445 -0.031043 -0.36005 0.26631 0.091789 0.14287 0.039759 -0.13619 -0.029398 0.2001 -0.076598 0.25218 0.13375 -0.12493 -0.26116 -0.068697 -0.066362 -0.047997 0.17119 
new 0.07956 0.12959 -0.1005 -0.043369 -0.15499 -0.059145 -0.012985 -0.12268 0.03084 0.034212 0.068319 0.15657 0.03124 0.12485 -0.14493 -0.083702 -0.0061979 0.069735 -0.084516 -0.091337 -0.078218 0.089502 0.036665 -0.020384 -0.36404 0.040348 0.27389 -0.10936 0.071926 0.019394 -0.15124 0.078716 -0.069851 -0.050751 -0.061645 -0.10857 0.19694 -0.07145 -0.09017 0.10397 0.40927 0.15044 0.080637 -0.010397 0.028612 -0.28877 -0.12731 0.10234 -0.25057 -0.10068 0.013895 0.10901 -0.24031 -0.062303 -0.053004 -0.3045 -0.020551 0.12156 0.09623 0.16169 -0.0827 0.052199 0.2348 0.22259 -0.29273 0.15142 0.14932 -0.03871 -0.02174 0.121 -0.10138 -0.10068 0.16029 0.14478 -0.13638 0.20181 0.18201 0.1622 0.054399 -0.048227 0.0039487 0.075713 -0.033503 -0.34468 0.2592 0.088387 0.14454 0.035295 -0.13229 -0.024617 0.19332 -0.071259 0.24459 0.13432 -0.12043 -0.25203 -0.067446 -0.067386 -0.044667 0.16459 
A 0.071566 0.11479 -0.094292 -0.036844 -0.14518 -0.0535 -0.0063001 -0.10608 0.037698 0.026663 0.062152 0.14093 0.019413 0.1165 -0.12796 -0.079004 -0.0028679 0.064977 -0.078841 -0.095778 -0.070228 0.089629 0.031365 -0.021359 -0.33411 0.033279 0.2475 -0.10346 0.058585 0.022443 -0.13605 0.079141 -0.065388 -0.052508 -0.066132 -0.096754 0.17191 -0.075623 -0.084143 0.093337 0.37522 0.13335 0.074451 -0.009677 0.034271 -0.26443 -0.11345 0.088416 -0.23191 -0.10586 0.0020551 0.10503 -0.22623 -0.062838 -0.045598 -0.28805 -0.024985 0.11115 0.087703 0.15269 -0.074754 0.048066 0.21699 0.20382 -0.26604 0.13981 0.13945 -0.038674 -0.021266 0.11345 -0.10069 -0.08763 0.14585 0.12666 -0.13523 0.19097 0.16278 0.151 0.051269 -0.044374 -0.00084797 0.064446 -0.018609 -0.31209 0.23803 0.07636 0.12693 0.029383 -0.12524 -0.024663 0.17399 -0.063533 0.22546 0.11822 -0.10771 -0.23315 -0.067298 -0.062238 -0.048877 0.15193 
can 0.087753 0.13493 -0.10127 -0.050121 -0.16422 -0.066712 -0.014335 -0.12975 0.033676 0.033428 0.068137 0.1659 0.022807 0.13195 -0.15345 -0.081798 -0.0010246 0.071354 -0.083502 -0.093144 -0.079841 0.097807 0.036917 -0.022159 -0.38877 0.041841 0.29217 -0.11236 0.075428 0.026113 -0.16637 0.084681 -0.078668 -0.055914 -0.07195 -0.11707 0.20799 -0.080192 -0.09944 0.10612 0.42864 0.15673 0.092038 -0.011912 0.029887 -0.308 -0.13015 0.10812 -0.26405 -0.10925 0.01633 0.11695 -0.25367 -0.070149 -0.051215 -0.32704 -0.014229 0.12402 0.098775 0.17082 -0.089121 0.055675 0.24633 0.2267 -0.30892 0.16382 0.15471 -0.042184 -0.02055 0.13346 -0.10753 -0.11355 0.16995 0.14716 -0.14269 0.21502 0.18755 0.17195 0.060583 -0.050752 0.0034604 0.079454 -0.033927 -0.36844 0.27477 0.090438 0.15444 0.037155 -0.14401 -0.027559 0.20446 -0.075112 0.2539 0.14006 -0.12732 -0.26648 -0.068408 -0.073112 -0.04598 0.17871 
Swiss 0.084283 0.13372 -0.10094 -0.048697 -0.16219 -0.0608 -0.010735 -0.12737 0.030454 0.031858 0.071717 0.16261 0.028304 0.13243 -0.14801 -0.083968 -0.0062703 0.070126 -0.085108 -0.097703 -0.080321 0.091785 0.035519 -0.022384 -0.37678 0.042864 0.28736 -0.10995 0.073092 0.022598 -0.16127 0.083157 -0.07173 -0.055252 -0.067056 -0.11211 0.20227 -0.076466 -0.094119 0.11065 0.42209 0.15256 0.088763 -0.0099961 0.030106 -0.29821 -0.12577 0.10496 -0.25897 -0.1107 0.012015 0.11457 -0.24537 -0.067412 -0.054787 -0.31547 -0.019794 0.12699 0.099558 0.1679 -0.089517 0.0521 0.23879 0.22072 -0.29681 0.15671 0.15377 -0.039912 -0.017662 0.12562 -0.10586 -0.1068 0.16991 0.1464 -0.14072 0.21339 0.18539 0.16238 0.055511 -0.04837 -0.00033264 0.075401 -0.029315 -0.3604 0.2689 0.091577 0.1428 0.033988 -0.13472 -0.02467 0.20359 -0.078956 0.258 0.13122 -0.12378 -0.25951 -0.072508 -0.068336 -0.048181 0.17376 
have 0.086143 0.13345 -0.099573 -0.048607 -0.15754 -0.059174 -0.0097157 -0.12449 0.03575 0.030288 0.064465 0.16499 0.029785 0.12809 -0.14673 -0.083649 0.0012944 0.073193 -0.087792 -0.095875 -0.078708 0.094398 0.031844 -0.024268 -0.37582 0.042596 0.2842 -0.11252 0.067067 0.025001 -0.16247 0.081488 -0.075447 -0.054928 -0.070486 -0.10856 0.20566 -0.074043 -0.093454 0.10766 0.41554 0.15556 0.087396 -0.0092196 0.025951 -0.29716 -0.12516 0.1029 -0.25569 -0.10617 0.014932 0.11281 -0.25086 -0.066304 -0.05507 -0.31597 -0.017946 0.12561 0.10002 0.1639 -0.091001 0.055437 0.24061 0.22194 -0.30539 0.15823 0.15212 -0.038319 -0.018419 0.12732 -0.10424 -0.11113 0.16892 0.14751 -0.14089 0.21035 0.17977 0.17014 0.062792 -0.046007 0.0019831 0.074266 -0.030034 -0.35594 0.27073 0.091368 0.14984 0.041259 -0.13606 -0.028611 0.19961 -0.076797 0.25522 0.13204 -0.12051 -0.26205 -0.069624 -0.069364 -0.047581 0.17186 
I 0.086397 0.12276 -0.10032 -0.043351 -0.15719 -0.06203 -0.014411 -0.1187 0.031099 0.02806 0.06277 0.16828 0.018049 0.12744 -0.15563 -0.087196 0.0050508 0.077853 -0.090573 -0.098578 -0.081456 0.083109 0.031605 -0.015612 -0.37013 0.036766 0.27932 -0.09993 0.079338 0.014278 -0.15586 0.077334 -0.07123 -0.052793 -0.068115 -0.10975 0.20663 -0.081171 -0.087427 0.10428 0.42044 0.15491 0.089795 -0.016904 0.029293 -0.29082 -0.12263 0.10157 -0.24326 -0.11325 0.015992 0.10737 -0.24426 -0.071517 -0.051801 -0.30929 -0.0083658 0.11956 0.096589 0.1611 -0.087329 0.055854 0.2392 0.23251 -0.30336 0.16005 0.14767 -0.040442 -0.021083 0.1331 -0.098467 -0.10935 0.16163 0.14448 -0.14021 0.20557 0.17014 0.16027 0.046813 -0.049416 0.011687 0.07674 -0.023422 -0.34557 0.25815 0.088758 0.14603 0.037898 -0.12334 -0.017321 0.18792 -0.075733 0.25318 0.14248 -0.11005 -0.26403 -0.068696 -0.068992 -0.044105 0.17487 
au 0.066383 0.11835 -0.095755 -0.022509 -0.14811 -0.03632 -0.022004 -0.11296 0.039369 0.023081 0.07272 0.13836 0.030567 0.11075 -0.12941 -0.071412 -0.015793 0.052842 -0.078894 -0.094126 -0.074403 0.091469 0.035707 -0.017199 -0.32412 0.040006 0.24971 -0.09975 0.057896 0.029239 -0.15542 0.076703 -0.042933 -0.048701 -0.059689 -0.096521 0.16298 -0.056433 -0.078854 0.093441 0.3773 0.12891 0.063817 0.007996 0.020351 -0.26841 -0.12362 0.094137 -0.23602 -0.091311 -0.0096306 0.094808 -0.22358 -0.049189 -0.047138 -0.26356 -0.038407 0.11844 0.10336 0.15377 -0.071186 0.029291 0.20058 0.19917 -0.23699 0.13858 0.1443 -0.0403 -0.010797 0.11052 -0.10788 -0.077183 0.14719 0.11751 -0.12861 0.18624 0.15976 0.13193 0.055282 -0.060666 0.0038654 0.056403 -0.016481 -0.31915 0.22183 0.0872 0.09207 0.020055 -0.12092 -0.026746 0.18762 -0.071085 0.23247 0.089384 -0.12236 -0.22046 -0.06562 -0.061761 -0.043485 0.14481 
: 0.066863 0.12381 -0.093862 -0.038217 -0.14703 -0.048681 -0.013335 -0.10477 0.032846 0.022409 0.068151 0.14641 0.019494 0.10979 -0.12861 -0.073198 -0.016395 0.053373 -0.082423 -0.089911 -0.07723 0.078357 0.036852 -0.014696 -0.33071 0.033837 0.25772 -0.094906 0.064292 0.02715 -0.15593 0.07791 -0.060751 -0.044348 -0.065547 -0.10168 0.17454 -0.057728 -0.084639 0.096928 0.38358 0.14539 0.073266 -0.00090853 0.029789 -0.27622 -0.11929 0.098312 -0.22693 -0.091524 0.0054048 0.10315 -0.22561 -0.059208 -0.044478 -0.27645 -0.034139 0.11466 0.093877 0.14768 -0.077902 0.034386 0.21776 0.19413 -0.25911 0.14067 0.13484 -0.034266 -0.014781 0.10593 -0.10024 -0.091733 0.154 0.13053 -0.13751 0.19619 0.16774 0.14091 0.055393 -0.04632 -0.00075727 0.057863 -0.018843 -0.31437 0.23958 0.083182 0.12272 0.026832 -0.11961 -0.024876 0.17923 -0.072344 0.23439 0.11865 -0.11775 -0.22725 -0.064887 -0.051397 -0.053246 0.15677 
un 0.070016 0.11835 -0.09848 -0.031474 -0.14456 -0.042524 -0.012237 -0.10706 0.037358 0.02341 0.069267 0.13694 0.032027 0.11354 -0.13322 -0.069182 -0.013943 0.056568 -0.076028 -0.095329 -0.074274 0.094198 0.036086 -0.018995 -0.32755 0.0385 0.25639 -0.09209 0.05626 0.027769 -0.15576 0.075713 -0.053312 -0.046459 -0.062064 -0.10179 0.17138 -0.052724 -0.090471 0.10136 0.37986 0.13094 0.06446 0.0048698 0.030133 -0.26948 -0.1212 0.095169 -0.23827 -0.090617 -0.0033359 0.096231 -0.22302 -0.049983 -0.041415 -0.27616 -0.031689 0.1177 0.093375 0.15478 -0.07366 0.038033 0.21136 0.19677 -0.24983 0.14478 0.14333 -0.040448 -0.0077684 0.11037 -0.10073 -0.086806 0.15003 0.11839 -0.12828 0.18131 0.15993 0.14096 0.056517 -0.05413 -0.0017799 0.057888 -0.019148 -0.31941 0.22805 0.083623 0.11159 0.02201 -0.12785 -0.026883 0.18431 -0.073055 0.23815 0.10245 -0.12112 -0.2293 -0.069962 -0.059998 -0.047672 0.15014 
New 0.075345 0.1189 -0.090695 -0.045728 -0.14764 -0.057074 -0.0093374 -0.11202 0.030002 0.027693 0.063296 0.1492 0.025131 0.11543 -0.13267 -0.071929 -0.001032 0.062914 -0.082775 -0.086329 -0.069516 0.082519 0.026366 -0.020904 -0.33654 0.032834 0.25359 -0.10296 0.06542 0.025303 -0.14105 0.073201 -0.068611 -0.051582 -0.062137 -0.10213 0.18364 -0.071651 -0.077935 0.097544 0.37609 0.1376 0.076905 -0.011071 0.0275 -0.26385 -0.11258 0.09513 -0.22978 -0.099183 0.012229 0.104 -0.2192 -0.065267 -0.047142 -0.28128 -0.018543 0.11235 0.088575 0.14837 -0.074113 0.045574 0.21719 0.19698 -0.26677 0.13951 0.13018 -0.031883 -0.019341 0.1151 -0.095696 -0.095447 0.15044 0.127 -0.12642 0.18941 0.16788 0.15107 0.047925 -0.046673 0.002421 0.064561 -0.028366 -0.32142 0.23648 0.082008 0.13045 0.03529 -0.11914 -0.02351 0.17911 -0.070336 0.22199 0.11871 -0.11273 -0.23267 -0.067227 -0.065495 -0.043044 0.15079 
| 0.068644 0.11814 -0.093764 -0.035156 -0.146 -0.048723 -0.019049 -0.11591 0.034771 0.02829 0.066783 0.15005 0.032515 0.11069 -0.13465 -0.079719 -0.0026653 0.061251 -0.07564 -0.091948 -0.071183 0.078014 0.031027 -0.022746 -0.32801 0.03035 0.26183 -0.094245 0.068626 0.025563 -0.14772 0.08224 -0.059206 -0.050566 -0.055707 -0.098404 0.18118 -0.063266 -0.076203 0.09509 0.37069 0.13704 0.080317 -0.0068738 0.026343 -0.26157 -0.11735 0.093943 -0.2269 -0.089951 0.0096417 0.10218 -0.21496 -0.059642 -0.041519 -0.2697 -0.021052 0.11161 0.096351 0.15429 -0.079855 0.041295 0.21296 0.1963 -0.25486 0.13256 0.13919 -0.036718 -0.013072 0.11069 -0.088691 -0.099966 0.13872 0.13103 -0.1335 0.18165 0.16034 0.1376 0.04593 -0.039835 0.00087727 0.063316 -0.023513 -0.31347 0.22914 0.080488 0.12502 0.036261 -0.12792 -0.02657 0.18191 -0.074571 0.2259 0.11272 -0.11221 -0.22871 -0.066815 -0.063292 -0.03791 0.15204 
more 0.087595 0.13677 -0.10367 -0.047265 -0.16398 -0.062458 -0.01451 -0.13142 0.032894 0.030614 0.067202 0.17148 0.025285 0.13293 -0.15455 -0.085657 -0.0052681 0.076414 -0.088759 -0.096267 -0.087613 0.097739 0.033704 -0.022325 -0.39077 0.044743 0.29237 -0.11323 0.076324 0.026949 -0.16556 0.083621 -0.072031 -0.054018 -0.068993 -0.11421 0.20797 -0.076488 -0.096248 0.1128 0.4346 0.1606 0.09004 -0.0085474 0.03116 -0.30747 -0.13096 0.10857 -0.26701 -0.10939 0.015193 0.11389 -0.25564 -0.070065 -0.054301 -0.32476 -0.018194 0.1338 0.104 0.17429 -0.094224 0.050524 0.24913 0.23263 -0.31151 0.16217 0.15784 -0.041799 -0.021148 0.1308 -0.10942 -0.10812 0.17355 0.15606 -0.14439 0.21757 0.18836 0.17034 0.061104 -0.052966 -0.00017863 0.076431 -0.028134 -0.36867 0.27406 0.098642 0.14986 0.041899 -0.14019 -0.033346 0.2111 -0.082427 0.26644 0.14017 -0.12881 -0.26768 -0.073433 -0.072298 -0.050663 0.17852 
it 0.088966 0.13196 -0.098729 -0.051533 -0.16444 -0.062242 -0.012658 -0.13187 0.029425 0.029289 0.072179 0.16903 0.02592 0.13483 -0.14863 -0.088425 -0.0030012 0.072552 -0.084074 -0.094143 -0.08271 0.085097 0.035753 -0.017894 -0.3806 0.036887 0.28841 -0.1101 0.078022 0.027158 -0.15838 0.085498 -0.074109 -0.05575 -0.066532 -0.11307 0.20728 -0.076705 -0.095057 0.1108 0.42457 0.15676 0.088433 -0.0098202 0.025078 -0.29424 -0.13044 0.10342 -0.25768 -0.10765 0.017091 0.10835 -0.24512 -0.068741 -0.053728 -0.31392 -0.00762 0.12998 0.098648 0.1712 -0.08975 0.058365 0.24181 0.22302 -0.30353 0.15382 0.15003 -0.039289 -0.024031 0.1303 -0.1001 -0.11186 0.16654 0.15153 -0.14789 0.21552 0.1855 0.16468 0.053472 -0.048657 0.00022999 0.07264 -0.030482 -0.36214 0.26832 0.091633 0.147 0.039492 -0.13008 -0.023358 0.19832 -0.072747 0.25981 0.13492 -0.12059 -0.26448 -0.071008 -0.065197 -0.044078 0.17552 
will 0.085108 0.12719 -0.094362 -0.045613 -0.15301 -0.060381 -0.012069 -0.12394 0.028022 0.035244 0.06235 0.15819 0.024343 0.12288 -0.14066 -0.077753 -0.0027496 0.069286 -0.08 -0.087363 -0.074911 0.086533 0.034833 -0.021212 -0.3622 0.03739 0.27635 -0.10635 0.074386 0.020401 -0.15333 0.081717 -0.068786 -0.048657 -0.066518 -0.10821 0.18996 -0.067062 -0.092124 0.10649 0.40245 0.14746 0.087795 -0.0098069 0.033552 -0.28837 -0.12158 0.10237 -0.24581 -0.10314 0.016215 0.108 -0.2328 -0.064841 -0.051931 -0.30244 -0.015545 0.12005 0.09332 0.15613 -0.085132 0.053055 0.23161 0.21582 -0.28961 0.14814 0.14557 -0.034895 -0.018883 0.12058 -0.096224 -0.1046 0.16287 0.14189 -0.13297 0.20004 0.17793 0.15721 0.05315 -0.044302 -0.0025676 0.072904 -0.029011 -0.34411 0.25417 0.087252 0.14074 0.035589 -0.12941 -0.028312 0.19026 -0.077915 0.24281 0.12874 -0.12172 -0.2527 -0.065995 -0.068612 -0.048858 0.17165 
#Switzerland 0.081957 0.14168 -0.11326 -0.0469 -0.17983 -0.064684 -0.0057148 -0.14234 0.040456 0.028761 0.080014 0.17422 0.032216 0.14328 -0.15183 -0.089031 -0.0087474 0.074594 -0.093708 -0.10693 -0.086928 0.10213 0.041054 -0.024098 -0.41657 0.040355 0.31226 -0.12079 0.078569 0.022973 -0.17669 0.08871 -0.079987 -0.064064 -0.073982 -0.11919 0.21583 -0.092806 -0.098913 0.11903 0.46842 0.17025 0.097319 -0.0090877 0.034301 -0.32966 -0.1369 0.11784 -0.29356 -0.12163 0.016352 0.13682 -0.26777 -0.075827 -0.062079 -0.35235 -0.023881 0.13702 0.11163 0.18935 -0.10085 0.05978 0.25674 0.24531 -0.32458 0.17673 0.16713 -0.042599 -0.017175 0.14224 -0.1196 -0.11824 0.18086 0.15692 -0.16045 0.24025 0.20512 0.18443 0.062564 -0.052265 0.0095339 0.086096 -0.02881 -0.39308 0.2934 0.099109 0.15946 0.032949 -0.15454 -0.031981 0.22327 -0.084998 0.2861 0.14062 -0.1446 -0.28473 -0.078214 -0.075716 -0.065145 0.18817 
has 0.089411 0.13558 -0.10154 -0.048232 -0.16505 -0.063577 -0.016268 -0.13015 0.032983 0.032182 0.070474 0.16794 0.029036 0.12837 -0.15055 -0.089237 -0.0038571 0.077564 -0.085688 -0.10219 -0.084482 0.093437 0.034399 -0.023512 -0.38594 0.043202 0.29011 -0.11221 0.074716 0.027026 -0.16769 0.083689 -0.071761 -0.050803 -0.069522 -0.11266 0.20855 -0.077745 -0.095427 0.1084 0.42889 0.15781 0.091446 -0.0075461 0.028184 -0.30155 -0.13446 0.10309 -0.25618 -0.10777 0.017416 0.11133 -0.2547 -0.066163 -0.054649 -0.32217 -0.017576 0.13409 0.099033 0.1671 -0.092505 0.056989 0.24273 0.22936 -0.30495 0.15803 0.15586 -0.038907 -0.020372 0.13036 -0.10742 -0.11338 0.17524 0.14984 -0.13862 0.21775 0.18469 0.16842 0.060391 -0.05134 0.00030434 0.074641 -0.032369 -0.37028 0.27481 0.09505 0.14736 0.041857 -0.14064 -0.025124 0.19977 -0.07614 0.25696 0.13731 -0.12588 -0.26624 -0.072503 -0.072878 -0.046137 0.17479 
une 0.059362 0.1099 -0.089815 -0.024955 -0.13691 -0.03639 -0.012429 -0.10177 0.037136 0.019291 0.059042 0.12729 0.025074 0.10343 -0.12105 -0.064575 -0.019868 0.049596 -0.0719 -0.091175 -0.072189 0.085302 0.03688 -0.014942 -0.30659 0.031506 0.24203 -0.092144 0.048727 0.02644 -0.14327 0.075943 -0.043458 -0.042795 -0.058264 -0.095376 0.15398 -0.04986 -0.078479 0.088047 0.34961 0.12571 0.06175 0.0021831 0.020869 -0.25096 -0.11068 0.087654 -0.2159 -0.087733 -0.0096811 0.092774 -0.20559 -0.047521 -0.03611 -0.24871 -0.032507 0.10814 0.093143 0.14327 -0.064508 0.030923 0.1932 0.1869 -0.23022 0.1288 0.13352 -0.038376 -0.0075277 0.09959 -0.097943 -0.075206 0.13664 0.11023 -0.12097 0.16955 0.14829 0.12558 0.049142 -0.044815 -0.0022222 0.050407 -0.016508 -0.29436 0.21109 0.080849 0.093555 0.016309 -0.11385 -0.025672 0.17198 -0.065407 0.21492 0.088395 -0.11799 -0.20804 -0.061338 -0.057734 -0.041431 0.13949 
first 0.086363 0.12949 -0.10129 -0.051523 -0.15967 -0.060344 -0.012294 -0.12579 0.036162 0.028721 0.066373 0.16127 0.029688 0.12692 -0.14655 -0.087244 -0.0053574 0.074124 -0.084463 -0.095497 -0.081978 0.093387 0.034052 -0.020796 -0.37215 0.040973 0.2814 -0.11009 0.07033 0.022716 -0.16054 0.081193 -0.06883 -0.055299 -0.06775 -0.10949 0.20181 -0.078229 -0.090763 0.10606 0.41939 0.15422 0.090969 -0.004579 0.027178 -0.29755 -0.12803 0.10132 -0.25375 -0.10811 0.015886 0.11304 -0.24403 -0.066657 -0.051168 -0.3129 -0.019029 0.12888 0.093274 0.16569 -0.09085 0.053358 0.24038 0.2244 -0.29974 0.15477 0.1515 -0.036419 -0.021613 0.12612 -0.10403 -0.10711 0.16541 0.14701 -0.13911 0.2133 0.17989 0.16384 0.059694 -0.044033 0.0048118 0.075627 -0.029834 -0.35656 0.26765 0.090588 0.14744 0.040539 -0.13449 -0.024596 0.19448 -0.07467 0.25232 0.13385 -0.12294 -0.26127 -0.071926 -0.067996 -0.045459 0.1725 
2018 0.083423 0.13785 -0.10961 -0.044311 -0.16395 -0.05728 -0.011614 -0.13564 0.034105 0.031676 0.072823 0.17024 0.028018 0.13227 -0.15214 -0.087288 -0.0098312 0.076413 -0.087813 -0.098866 -0.084597 0.096694 0.036294 -0.017834 -0.38856 0.044115 0.29416 -0.11341 0.072033 0.027452 -0.17003 0.090191 -0.067697 -0.056582 -0.071781 -0.11479 0.20158 -0.071599 -0.09346 0.11464 0.43204 0.16053 0.091468 -0.0043117 0.031406 -0.30533 -0.13833 0.11113 -0.26608 -0.11151 0.011185 0.11672 -0.25185 -0.065042 -0.053665 -0.32249 -0.022973 0.13342 0.10257 0.17527 -0.091541 0.053406 0.24603 0.22937 -0.29863 0.16301 0.15765 -0.040374 -0.016304 0.12756 -0.1127 -0.10757 0.17546 0.15404 -0.14442 0.21779 0.18412 0.16638 0.057916 -0.050078 0.0032505 0.07158 -0.032287 -0.37245 0.2744 0.096583 0.1432 0.03432 -0.14536 -0.028867 0.20591 -0.08331 0.26142 0.13438 -0.13449 -0.26444 -0.070744 -0.069982 -0.050627 0.18013 
@MartinVetterli 0.069074 0.11853 -0.093146 -0.037604 -0.14355 -0.047033 -0.01258 -0.11038 0.031564 0.025228 0.061497 0.14197 0.025805 0.11118 -0.12913 -0.073726 -0.0099083 0.060394 -0.077796 -0.087821 -0.073196 0.08607 0.032066 -0.018258 -0.33059 0.036489 0.25155 -0.09938 0.062889 0.02396 -0.1468 0.074627 -0.057047 -0.049003 -0.059311 -0.10209 0.17271 -0.064247 -0.084207 0.09395 0.37376 0.13425 0.073156 -0.003506 0.025171 -0.26408 -0.11598 0.095551 -0.22975 -0.09538 0.003446 0.10028 -0.22084 -0.054543 -0.044936 -0.27365 -0.026263 0.11447 0.090458 0.15006 -0.07509 0.041535 0.20993 0.19666 -0.25642 0.13752 0.13569 -0.037366 -0.014502 0.11244 -0.097813 -0.089032 0.14933 0.12558 -0.12521 0.18365 0.1632 0.14198 0.052555 -0.048574 0.0011473 0.061605 -0.022237 -0.3139 0.233 0.084123 0.11837 0.02908 -0.1196 -0.025599 0.17965 -0.070307 0.22718 0.10881 -0.11584 -0.22706 -0.063822 -0.059937 -0.044835 0.15232 
all 0.082512 0.12761 -0.10066 -0.048002 -0.16402 -0.060954 -0.007071 -0.12793 0.034394 0.031372 0.066463 0.16218 0.024239 0.13083 -0.14466 -0.08359 -0.0034081 0.07374 -0.08568 -0.093635 -0.082075 0.089666 0.03773 -0.020583 -0.3739 0.036748 0.28744 -0.11017 0.073933 0.025444 -0.15628 0.082204 -0.066387 -0.058713 -0.069222 -0.11369 0.20039 -0.078322 -0.093643 0.10641 0.42037 0.1533 0.093103 -0.0099273 0.027966 -0.30101 -0.12547 0.10582 -0.26155 -0.10639 0.015338 0.11617 -0.24923 -0.067138 -0.057123 -0.31964 -0.020181 0.12632 0.098807 0.16551 -0.087461 0.055442 0.23896 0.2221 -0.29933 0.15694 0.15702 -0.039496 -0.018691 0.12723 -0.098993 -0.10401 0.16928 0.14722 -0.14182 0.21236 0.18555 0.16583 0.054106 -0.043062 0.0061532 0.075088 -0.032595 -0.35949 0.26619 0.086572 0.14957 0.03564 -0.13656 -0.024714 0.19739 -0.078654 0.25157 0.13695 -0.12848 -0.26037 -0.069528 -0.068709 -0.050561 0.17309 
students 0.085163 0.1316 -0.10289 -0.046427 -0.1632 -0.059404 -0.0093636 -0.12686 0.034475 0.030462 0.06788 0.16684 0.026267 0.12658 -0.14798 -0.085233 -0.0028223 0.07384 -0.086287 -0.094069 -0.082326 0.094062 0.035296 -0.020593 -0.37966 0.038818 0.28502 -0.11059 0.073748 0.023702 -0.15996 0.083117 -0.068915 -0.057099 -0.073717 -0.11392 0.2033 -0.073176 -0.092094 0.10978 0.42113 0.15605 0.085513 -0.0077637 0.031259 -0.29934 -0.12747 0.10351 -0.2621 -0.10837 0.016889 0.1124 -0.24834 -0.069548 -0.053361 -0.31296 -0.017493 0.12713 0.09698 0.16544 -0.089211 0.05412 0.24169 0.22534 -0.30183 0.15764 0.14977 -0.036734 -0.020141 0.12819 -0.10203 -0.1089 0.17061 0.1496 -0.13918 0.21098 0.1826 0.16765 0.055851 -0.047971 -0.0019576 0.071217 -0.029292 -0.35936 0.27203 0.091427 0.14715 0.039231 -0.13839 -0.02625 0.20155 -0.078211 0.25682 0.13081 -0.12334 -0.26247 -0.070708 -0.068177 -0.049289 0.17384 
par 0.061174 0.11598 -0.093628 -0.032287 -0.14673 -0.044663 -0.012604 -0.10915 0.035138 0.020865 0.063288 0.13831 0.022762 0.11339 -0.12438 -0.065519 -0.018338 0.057279 -0.075309 -0.088221 -0.072982 0.086389 0.032372 -0.018207 -0.3196 0.036813 0.24707 -0.096992 0.058528 0.018989 -0.14482 0.072032 -0.049972 -0.049036 -0.05717 -0.10108 0.16054 -0.05755 -0.080395 0.095071 0.36786 0.1332 0.066956 0.0027383 0.020847 -0.26159 -0.11421 0.095954 -0.22365 -0.089983 -0.003336 0.098066 -0.22317 -0.049975 -0.042095 -0.26457 -0.027484 0.11085 0.096877 0.14779 -0.073314 0.037198 0.20816 0.19205 -0.24388 0.13515 0.13641 -0.040825 -0.012356 0.10703 -0.099856 -0.082934 0.143 0.11827 -0.12476 0.18424 0.15524 0.137 0.055803 -0.045458 0.0032823 0.059532 -0.016372 -0.31049 0.22279 0.082792 0.11275 0.0295 -0.12055 -0.024985 0.17964 -0.066496 0.22595 0.1051 -0.1194 -0.21918 -0.06494 -0.053921 -0.039466 0.14692 
Les 0.060332 0.11271 -0.092332 -0.023968 -0.13956 -0.037149 -0.018151 -0.10443 0.037267 0.020543 0.062975 0.12982 0.024907 0.11183 -0.12077 -0.059662 -0.012948 0.054349 -0.076375 -0.085671 -0.06876 0.083979 0.035602 -0.020674 -0.30327 0.029859 0.23791 -0.092111 0.050978 0.022101 -0.14601 0.070503 -0.052349 -0.044833 -0.05369 -0.092515 0.1584 -0.050824 -0.078423 0.091139 0.35526 0.12479 0.06294 0.0007667 0.02317 -0.25028 -0.11104 0.089003 -0.22138 -0.090705 -0.015556 0.094195 -0.21109 -0.04597 -0.044035 -0.25177 -0.030663 0.11669 0.093 0.14396 -0.06849 0.029972 0.19948 0.18882 -0.23199 0.12902 0.1361 -0.040704 -0.0071862 0.10269 -0.093657 -0.074778 0.14209 0.11286 -0.12527 0.17275 0.15182 0.13516 0.049851 -0.05394 0.00027673 0.049043 -0.019364 -0.28927 0.21289 0.075767 0.098341 0.019491 -0.11426 -0.02496 0.17611 -0.062008 0.22052 0.089703 -0.11732 -0.20614 -0.062837 -0.056559 -0.048166 0.13763 
now 0.088896 0.13086 -0.098376 -0.056027 -0.15959 -0.060725 -0.0082521 -0.13042 0.030008 0.028695 0.066746 0.17127 0.027272 0.12989 -0.15263 -0.088267 -0.0011174 0.076901 -0.087295 -0.092477 -0.084859 0.096407 0.030146 -0.025612 -0.38214 0.038435 0.28918 -0.11332 0.079988 0.019854 -0.15831 0.077922 -0.07307 -0.055686 -0.070053 -0.1104 0.20277 -0.07245 -0.094272 0.11537 0.42676 0.15726 0.090313 -0.0084568 0.026711 -0.30163 -0.13124 0.10515 -0.26009 -0.11037 0.014307 0.11159 -0.24838 -0.068074 -0.056038 -0.31459 -0.013852 0.12463 0.0991 0.16484 -0.087331 0.051975 0.24682 0.22131 -0.3099 0.16043 0.15026 -0.035776 -0.015707 0.12815 -0.10704 -0.1134 0.17123 0.14625 -0.13834 0.21094 0.18645 0.16345 0.057693 -0.052244 -0.0023527 0.074106 -0.033532 -0.36373 0.27374 0.092679 0.14638 0.03985 -0.13785 -0.022724 0.20356 -0.079911 0.24801 0.14031 -0.12321 -0.26634 -0.069376 -0.068802 -0.053109 0.17582 
this 0.092721 0.12915 -0.099283 -0.051461 -0.15424 -0.062701 -0.011515 -0.12218 0.030769 0.034515 0.060562 0.16317 0.024189 0.12183 -0.1496 -0.082286 0.0014382 0.075116 -0.083913 -0.089369 -0.081844 0.090516 0.031402 -0.021616 -0.37337 0.041552 0.28163 -0.10489 0.074295 0.021968 -0.15418 0.080604 -0.072692 -0.049457 -0.069641 -0.11334 0.20567 -0.072346 -0.091 0.10497 0.4156 0.15402 0.092797 -0.013067 0.03005 -0.29084 -0.1271 0.10306 -0.25342 -0.10771 0.020585 0.10515 -0.2444 -0.069142 -0.051468 -0.3144 -0.011189 0.12341 0.091224 0.16455 -0.090268 0.055445 0.2414 0.22056 -0.30766 0.15396 0.14485 -0.033763 -0.021859 0.1289 -0.10044 -0.11152 0.16554 0.14924 -0.13461 0.21338 0.18251 0.16598 0.05996 -0.046701 -0.0023032 0.073777 -0.034131 -0.35049 0.26778 0.092407 0.15068 0.040997 -0.13299 -0.024917 0.193 -0.078697 0.24673 0.13953 -0.11829 -0.26019 -0.066851 -0.066404 -0.044394 0.17314 
its 0.083856 0.12957 -0.10415 -0.049256 -0.16103 -0.055897 -0.011742 -0.12861 0.030316 0.025149 0.070606 0.16751 0.025527 0.12906 -0.15031 -0.084276 -0.0049207 0.072198 -0.087132 -0.090338 -0.076952 0.091098 0.030252 -0.01812 -0.37728 0.037125 0.28039 -0.11043 0.072566 0.025543 -0.1552 0.083711 -0.069102 -0.050548 -0.070058 -0.11687 0.20467 -0.069958 -0.087623 0.11255 0.41905 0.15533 0.086696 -0.0089144 0.025829 -0.29627 -0.12853 0.10365 -0.25849 -0.10814 0.017264 0.10636 -0.24366 -0.064352 -0.052386 -0.30944 -0.0155 0.12966 0.098185 0.16643 -0.087085 0.056978 0.24051 0.224 -0.29856 0.15082 0.15259 -0.038575 -0.023528 0.12927 -0.10247 -0.11092 0.17216 0.1511 -0.13712 0.21035 0.18173 0.16521 0.05753 -0.051733 -0.0029376 0.071057 -0.03182 -0.35919 0.26492 0.093259 0.1431 0.040244 -0.13888 -0.032473 0.20279 -0.076232 0.25257 0.13055 -0.12223 -0.26354 -0.075165 -0.067086 -0.052457 0.17487 
@ETH_en 0.078076 0.12977 -0.099417 -0.045551 -0.1575 -0.05847 -0.010759 -0.12179 0.028249 0.027462 0.067855 0.15677 0.027869 0.1266 -0.14081 -0.078551 -0.0087621 0.068354 -0.085047 -0.09039 -0.076318 0.088995 0.034089 -0.019772 -0.36326 0.037849 0.27693 -0.10327 0.072279 0.024149 -0.15567 0.080761 -0.069295 -0.053262 -0.069103 -0.10777 0.19515 -0.075171 -0.090336 0.10265 0.40997 0.15118 0.084775 -0.0082913 0.028858 -0.28722 -0.12327 0.10169 -0.25353 -0.1056 0.011707 0.11292 -0.23398 -0.06663 -0.052659 -0.30428 -0.018641 0.1223 0.09836 0.15985 -0.087249 0.054699 0.23261 0.21685 -0.2899 0.14977 0.14595 -0.036956 -0.0184 0.12304 -0.10304 -0.10508 0.16046 0.14141 -0.135 0.20586 0.17712 0.15837 0.055252 -0.045765 0.0015975 0.07329 -0.027945 -0.34462 0.25924 0.088121 0.14011 0.033471 -0.13277 -0.026047 0.19546 -0.078208 0.24984 0.12869 -0.12017 -0.25464 -0.068136 -0.066933 -0.051039 0.16865 
how 0.08499 0.12778 -0.099562 -0.046162 -0.1521 -0.057637 -0.010234 -0.12167 0.030718 0.02852 0.061828 0.1618 0.026746 0.12507 -0.14548 -0.084167 0.0021797 0.074474 -0.086067 -0.091837 -0.077513 0.09041 0.031282 -0.0218 -0.37252 0.035553 0.27974 -0.11226 0.072364 0.026063 -0.15797 0.074177 -0.072437 -0.055959 -0.069176 -0.1106 0.19689 -0.073959 -0.089754 0.10304 0.41765 0.15418 0.08317 -0.01301 0.025698 -0.29609 -0.129 0.10166 -0.25422 -0.10603 0.011442 0.11012 -0.24229 -0.068419 -0.051828 -0.31001 -0.016388 0.12784 0.094823 0.1647 -0.086381 0.054546 0.24399 0.21504 -0.29995 0.15513 0.14907 -0.034038 -0.019972 0.12797 -0.09909 -0.10803 0.16147 0.14173 -0.13625 0.21168 0.18189 0.16473 0.05477 -0.044772 0.0011805 0.076753 -0.034908 -0.3512 0.26239 0.088354 0.14222 0.038547 -0.13214 -0.025453 0.19617 -0.07086 0.25112 0.13254 -0.12366 -0.25914 -0.067313 -0.068115 -0.050309 0.16805 
2017 0.07511 0.12092 -0.094304 -0.037451 -0.14687 -0.051809 -0.0097009 -0.11208 0.02922 0.026231 0.065385 0.14498 0.021691 0.1153 -0.13111 -0.072608 -0.010084 0.064388 -0.079531 -0.088405 -0.067923 0.085382 0.032647 -0.016786 -0.34066 0.039465 0.25612 -0.099051 0.06201 0.021218 -0.14974 0.073805 -0.061449 -0.049076 -0.058753 -0.09989 0.17894 -0.05998 -0.086285 0.099921 0.38021 0.13524 0.079229 -0.0038686 0.027197 -0.26849 -0.11987 0.099195 -0.23143 -0.095614 0.011306 0.10065 -0.2224 -0.058153 -0.043673 -0.28024 -0.020302 0.11915 0.09117 0.15085 -0.077262 0.047711 0.21629 0.20156 -0.26088 0.14459 0.13823 -0.034492 -0.015925 0.11256 -0.096889 -0.094175 0.1518 0.12952 -0.12807 0.18931 0.1631 0.14647 0.05005 -0.042697 0.001668 0.063766 -0.028109 -0.32436 0.2399 0.0867 0.1257 0.029645 -0.12512 -0.020965 0.18208 -0.075057 0.2328 0.11449 -0.11694 -0.23537 -0.064408 -0.059521 -0.041096 0.15615 
their 0.090761 0.12724 -0.09732 -0.048313 -0.15362 -0.059987 -0.0085295 -0.127 0.026225 0.03161 0.059412 0.16261 0.023482 0.12372 -0.14472 -0.083152 0.0016186 0.074186 -0.082669 -0.089983 -0.076891 0.084052 0.029607 -0.019524 -0.36614 0.041026 0.27868 -0.10405 0.075801 0.027092 -0.1533 0.080635 -0.072497 -0.05468 -0.069493 -0.10986 0.19863 -0.072618 -0.087223 0.10317 0.40814 0.15007 0.087673 -0.0094406 0.030437 -0.28787 -0.12435 0.098302 -0.24856 -0.10692 0.019437 0.10432 -0.23948 -0.064027 -0.052199 -0.30592 -0.010858 0.11869 0.086343 0.15971 -0.08875 0.052969 0.23744 0.22083 -0.30002 0.14689 0.14108 -0.031251 -0.01967 0.12472 -0.10157 -0.11378 0.16657 0.14488 -0.13129 0.19991 0.17607 0.1643 0.053095 -0.047116 0.0010729 0.071251 -0.033963 -0.34824 0.26144 0.091352 0.14618 0.040973 -0.13286 -0.025214 0.1937 -0.080327 0.24187 0.13477 -0.11277 -0.25521 -0.065298 -0.063829 -0.039414 0.17317 
@epfl_en 0.073823 0.11897 -0.09375 -0.039461 -0.14711 -0.05524 -0.010021 -0.1167 0.030184 0.023902 0.061338 0.14727 0.023063 0.11454 -0.13188 -0.074733 -0.0053126 0.063761 -0.079445 -0.08542 -0.071493 0.085545 0.033032 -0.018589 -0.33776 0.037771 0.2614 -0.096032 0.065799 0.019674 -0.14588 0.073431 -0.063407 -0.053295 -0.060308 -0.10259 0.17952 -0.064946 -0.085093 0.095908 0.3821 0.13795 0.077309 -0.0022838 0.029003 -0.2699 -0.11418 0.094222 -0.2341 -0.098373 0.0088948 0.10094 -0.22189 -0.059724 -0.04862 -0.28368 -0.021522 0.11527 0.08784 0.1533 -0.079774 0.045729 0.21768 0.20199 -0.27024 0.13973 0.13723 -0.035199 -0.017287 0.11445 -0.098006 -0.09758 0.15193 0.12901 -0.12837 0.19015 0.1652 0.14731 0.052693 -0.046074 0.00060415 0.067752 -0.025991 -0.32156 0.24236 0.0841 0.12758 0.032643 -0.12421 -0.025131 0.18338 -0.071568 0.23343 0.11758 -0.11126 -0.23602 -0.064163 -0.060549 -0.047299 0.15997 
as 0.0875 0.13295 -0.10932 -0.057014 -0.16787 -0.065189 -0.021073 -0.12595 0.035221 0.02196 0.072438 0.16874 0.023655 0.12463 -0.15215 -0.085282 -0.003898 0.07835 -0.087471 -0.096203 -0.08209 0.10289 0.032703 -0.023741 -0.37933 0.04099 0.29131 -0.10863 0.07511 0.02368 -0.16032 0.078522 -0.070101 -0.053535 -0.067347 -0.1098 0.20888 -0.078648 -0.091875 0.1102 0.42864 0.15285 0.088169 -0.0054813 0.023825 -0.29853 -0.13538 0.10741 -0.25828 -0.10678 0.0083513 0.11498 -0.25616 -0.068443 -0.059008 -0.31321 -0.021391 0.12696 0.099694 0.16589 -0.091124 0.056078 0.24811 0.22503 -0.30396 0.15775 0.15423 -0.037665 -0.028593 0.13434 -0.11041 -0.11631 0.17126 0.14814 -0.13792 0.21863 0.18265 0.16531 0.05956 -0.047916 -0.0020821 0.076477 -0.03253 -0.36825 0.27503 0.092454 0.14377 0.042366 -0.14131 -0.027883 0.19682 -0.080578 0.25905 0.12635 -0.12578 -0.2614 -0.064445 -0.073931 -0.051338 0.17614 
@unil 0.078126 0.12596 -0.10419 -0.041567 -0.15311 -0.053016 -0.0072457 -0.12226 0.029103 0.026483 0.064428 0.15513 0.025069 0.11739 -0.13847 -0.074389 -0.0009045 0.066679 -0.088423 -0.091676 -0.076237 0.08784 0.031102 -0.020471 -0.35414 0.040318 0.27092 -0.10688 0.069834 0.022772 -0.15317 0.075759 -0.06653 -0.05289 -0.06688 -0.10751 0.18633 -0.065178 -0.086566 0.10033 0.39758 0.14247 0.081858 -0.0025266 0.030456 -0.2832 -0.11759 0.10183 -0.24431 -0.10077 0.0098657 0.099574 -0.23195 -0.062074 -0.04755 -0.29588 -0.019816 0.12263 0.091752 0.15875 -0.083581 0.046271 0.22481 0.20754 -0.28045 0.14548 0.14607 -0.036744 -0.016313 0.12498 -0.10584 -0.10647 0.15967 0.13491 -0.13338 0.1973 0.17085 0.15354 0.051392 -0.048624 0.0016745 0.068224 -0.028331 -0.34049 0.25441 0.085674 0.13229 0.037095 -0.13118 -0.028239 0.18901 -0.071319 0.23587 0.12285 -0.11433 -0.24361 -0.066748 -0.061566 -0.0441 0.16738 
dans 0.066227 0.11499 -0.092365 -0.033395 -0.14345 -0.045264 -0.015395 -0.10781 0.029912 0.021459 0.060456 0.13757 0.026471 0.10872 -0.12225 -0.068879 -0.012816 0.055969 -0.073357 -0.088806 -0.071208 0.086664 0.034308 -0.019095 -0.32247 0.032552 0.24642 -0.098442 0.059838 0.022182 -0.14499 0.070355 -0.052096 -0.049791 -0.061101 -0.097611 0.16785 -0.060518 -0.084137 0.089468 0.36695 0.12975 0.07135 -0.0015557 0.027109 -0.2598 -0.11461 0.092617 -0.22365 -0.090138 0.0025527 0.1001 -0.21832 -0.052982 -0.042369 -0.26553 -0.025944 0.11155 0.091503 0.14782 -0.074203 0.042354 0.20577 0.19412 -0.25075 0.13374 0.13349 -0.038699 -0.013061 0.11106 -0.097535 -0.084665 0.14477 0.12293 -0.12281 0.17943 0.15773 0.13383 0.048632 -0.050586 0.00059808 0.06003 -0.021359 -0.3105 0.22366 0.08116 0.11414 0.026021 -0.12143 -0.027601 0.17857 -0.06793 0.22816 0.099903 -0.11684 -0.22115 -0.061363 -0.061482 -0.046025 0.14591 
we 0.082284 0.12493 -0.098776 -0.048458 -0.15038 -0.059356 -0.010302 -0.11868 0.033378 0.029883 0.069319 0.16159 0.021658 0.12041 -0.13507 -0.083745 0.00019002 0.077071 -0.081815 -0.087429 -0.080921 0.084608 0.030553 -0.018843 -0.36007 0.035457 0.27051 -0.10257 0.07014 0.021553 -0.15318 0.081683 -0.068307 -0.04929 -0.066844 -0.10924 0.19507 -0.072439 -0.084617 0.10662 0.40229 0.14395 0.086208 -0.011137 0.027694 -0.28212 -0.12307 0.10218 -0.24168 -0.10186 0.014851 0.10643 -0.23337 -0.065122 -0.054441 -0.30438 -0.016111 0.11696 0.08968 0.15961 -0.081677 0.050283 0.2276 0.20702 -0.29212 0.15047 0.14308 -0.031498 -0.014867 0.12766 -0.094679 -0.10388 0.16548 0.1423 -0.13455 0.20176 0.17182 0.15338 0.055117 -0.045388 -0.0035607 0.071571 -0.032053 -0.33901 0.25441 0.08456 0.14534 0.03429 -0.13072 -0.024942 0.18926 -0.07483 0.2379 0.12789 -0.11817 -0.24769 -0.063987 -0.056985 -0.042564 0.16034 
your 0.08127 0.13018 -0.10155 -0.043164 -0.15866 -0.05615 -0.012103 -0.12112 0.03417 0.03136 0.068734 0.15953 0.025913 0.12308 -0.14448 -0.080893 -0.0090886 0.068344 -0.08322 -0.089286 -0.079621 0.093142 0.036464 -0.020658 -0.36789 0.044489 0.28122 -0.1095 0.067467 0.026076 -0.16625 0.088404 -0.064887 -0.056204 -0.067689 -0.10878 0.19358 -0.065783 -0.093605 0.10287 0.41182 0.1525 0.083755 -0.0028719 0.028942 -0.29481 -0.12632 0.10307 -0.2549 -0.10358 0.0054509 0.10875 -0.24262 -0.065284 -0.050566 -0.3064 -0.019071 0.12467 0.1013 0.16402 -0.084264 0.045524 0.23517 0.21933 -0.28796 0.15375 0.14732 -0.038546 -0.0093365 0.12317 -0.10347 -0.1052 0.16568 0.1374 -0.13995 0.19509 0.17672 0.16141 0.056494 -0.05272 -0.0015718 0.070295 -0.026529 -0.34929 0.2602 0.091121 0.12968 0.036841 -0.13006 -0.027904 0.19871 -0.074728 0.24548 0.1278 -0.12486 -0.25208 -0.072526 -0.064785 -0.043735 0.16877 
Lausanne 0.086219 0.14388 -0.11693 -0.040382 -0.17563 -0.057274 -0.01285 -0.13971 0.038746 0.032588 0.075824 0.17584 0.032672 0.13632 -0.1621 -0.085617 -0.014355 0.070382 -0.092603 -0.10866 -0.089535 0.10426 0.040286 -0.022446 -0.41429 0.044609 0.31849 -0.12372 0.080741 0.029434 -0.18574 0.095121 -0.070564 -0.061746 -0.077533 -0.12242 0.21106 -0.077595 -0.10196 0.11925 0.46293 0.16611 0.090205 -0.0023584 0.031855 -0.32743 -0.145 0.11167 -0.28579 -0.11888 0.0065658 0.12592 -0.26998 -0.069059 -0.058458 -0.33753 -0.028185 0.14067 0.11275 0.18272 -0.091396 0.05051 0.26216 0.24604 -0.31511 0.17315 0.16951 -0.043703 -0.015981 0.13941 -0.12415 -0.11568 0.18184 0.15474 -0.15674 0.23316 0.20053 0.17271 0.062587 -0.056221 0.00081206 0.074501 -0.031464 -0.39174 0.28782 0.10459 0.14529 0.032328 -0.14938 -0.031128 0.22516 -0.083221 0.28224 0.13725 -0.14331 -0.28175 -0.07855 -0.075347 -0.055104 0.18692 
Avec 0.05616 0.097757 -0.078842 -0.027093 -0.12395 -0.036241 -0.013815 -0.09038 0.031876 0.019529 0.051941 0.11953 0.022306 0.095051 -0.10978 -0.057166 -0.012734 0.049074 -0.066408 -0.077077 -0.063999 0.071803 0.02938 -0.015084 -0.27703 0.034771 0.21312 -0.083501 0.047616 0.022462 -0.12778 0.061019 -0.044305 -0.044267 -0.050667 -0.080555 0.14196 -0.051139 -0.071629 0.083559 0.31895 0.11468 0.060365 0.0032755 0.018107 -0.22545 -0.098239 0.076892 -0.19595 -0.08099 0.0027438 0.08408 -0.18947 -0.044313 -0.037722 -0.22838 -0.024439 0.099213 0.081242 0.12703 -0.062251 0.034885 0.17907 0.16914 -0.2114 0.11398 0.11468 -0.029658 -0.0082863 0.094947 -0.083302 -0.071813 0.12345 0.10371 -0.10689 0.15363 0.1348 0.11986 0.042439 -0.043146 0.0021357 0.049727 -0.015063 -0.2622 0.19551 0.072576 0.09559 0.02124 -0.10348 -0.022789 0.15485 -0.059649 0.1976 0.089791 -0.095819 -0.18882 -0.056297 -0.050476 -0.04149 0.12367 
vous 0.065839 0.12143 -0.10238 -0.031618 -0.15096 -0.040272 -0.016542 -0.11169 0.034713 0.023958 0.066272 0.14166 0.030366 0.11048 -0.13312 -0.069343 -0.014348 0.062188 -0.080773 -0.092454 -0.076362 0.092167 0.035743 -0.021263 -0.32938 0.039182 0.25756 -0.10348 0.061821 0.0248 -0.15182 0.078172 -0.05203 -0.05121 -0.058175 -0.097761 0.16772 -0.061733 -0.087966 0.095864 0.37954 0.13271 0.067191 0.0026881 0.018039 -0.27011 -0.12006 0.10031 -0.23643 -0.095153 -0.003793 0.10442 -0.22561 -0.053379 -0.045475 -0.27247 -0.029688 0.11956 0.098189 0.15593 -0.075526 0.040114 0.20833 0.20185 -0.24907 0.13487 0.14343 -0.044315 -0.012235 0.10975 -0.10501 -0.085376 0.14988 0.11872 -0.12994 0.1859 0.16228 0.13776 0.052089 -0.049741 0.0033942 0.059079 -0.017459 -0.31819 0.2343 0.085856 0.11436 0.024933 -0.12731 -0.026892 0.18467 -0.069759 0.23458 0.10525 -0.12095 -0.22619 -0.064434 -0.061369 -0.045916 0.14813 
#innovation 0.076841 0.12302 -0.097424 -0.04123 -0.15045 -0.052045 -0.0096727 -0.1211 0.030999 0.030404 0.065401 0.15384 0.025344 0.11864 -0.13862 -0.077203 -0.0054583 0.066926 -0.082451 -0.091108 -0.075174 0.088348 0.033776 -0.022665 -0.35565 0.037517 0.26996 -0.1034 0.068405 0.025545 -0.15239 0.081458 -0.065225 -0.05097 -0.067155 -0.10616 0.18654 -0.068417 -0.086838 0.10143 0.39679 0.14656 0.080791 -0.0074467 0.030425 -0.28226 -0.12163 0.098764 -0.24449 -0.10178 0.010782 0.10592 -0.23044 -0.05824 -0.049559 -0.29439 -0.01993 0.12071 0.093521 0.15656 -0.084997 0.049196 0.22636 0.20991 -0.2812 0.14695 0.14122 -0.036412 -0.017267 0.11938 -0.10008 -0.10105 0.159 0.13923 -0.1342 0.19725 0.17305 0.15339 0.053714 -0.044821 6.7294e-05 0.069223 -0.027586 -0.33893 0.25284 0.08704 0.13608 0.034343 -0.13038 -0.028099 0.19071 -0.074974 0.24132 0.12359 -0.12017 -0.24546 -0.065579 -0.064749 -0.047507 0.16322 
talk 0.079789 0.12806 -0.098434 -0.048872 -0.15084 -0.056617 -0.011858 -0.11919 0.031799 0.027095 0.06056 0.15707 0.031215 0.12504 -0.14272 -0.085982 -0.0051011 0.068709 -0.083015 -0.093941 -0.081565 0.091678 0.03404 -0.021456 -0.36867 0.041373 0.27561 -0.11141 0.065033 0.023892 -0.15569 0.081338 -0.071893 -0.051276 -0.066301 -0.11058 0.19133 -0.071488 -0.088795 0.10497 0.4094 0.15012 0.089459 -0.010217 0.026362 -0.29274 -0.12692 0.10246 -0.25494 -0.10498 0.014057 0.11063 -0.24363 -0.065175 -0.051341 -0.3089 -0.019635 0.12239 0.092925 0.16277 -0.08515 0.054387 0.2347 0.21854 -0.29107 0.152 0.14752 -0.037322 -0.019027 0.12267 -0.10445 -0.10152 0.1635 0.14484 -0.13546 0.20686 0.178 0.16258 0.057518 -0.047986 0.0020563 0.074696 -0.031892 -0.35121 0.25989 0.0878 0.14803 0.037831 -0.13243 -0.029662 0.19404 -0.071786 0.24759 0.12867 -0.12031 -0.25138 -0.070175 -0.068205 -0.048374 0.16717 
next 0.082672 0.13177 -0.10004 -0.050339 -0.15812 -0.058492 -0.0097704 -0.12548 0.031455 0.029832 0.067658 0.15859 0.028433 0.12539 -0.14165 -0.083762 -0.0048609 0.066687 -0.083549 -0.09188 -0.079491 0.092345 0.037877 -0.019729 -0.37075 0.039197 0.27828 -0.1081 0.072645 0.020974 -0.16008 0.083649 -0.068745 -0.050299 -0.066368 -0.10668 0.19855 -0.070719 -0.090832 0.10879 0.41199 0.15362 0.084791 -0.010669 0.027863 -0.29103 -0.1233 0.10127 -0.25485 -0.10672 0.016027 0.11008 -0.23944 -0.065007 -0.052083 -0.30565 -0.018687 0.12303 0.088774 0.16112 -0.088728 0.049611 0.23622 0.21767 -0.29115 0.1515 0.14667 -0.038904 -0.01933 0.12267 -0.10303 -0.10645 0.16335 0.14744 -0.13727 0.20597 0.17982 0.16451 0.055849 -0.047932 0.0027535 0.072868 -0.028246 -0.34786 0.26049 0.093981 0.13967 0.033526 -0.13753 -0.025681 0.1941 -0.074032 0.24725 0.12733 -0.12431 -0.25342 -0.068015 -0.06609 -0.046291 0.16575 
avec 0.072248 0.1228 -0.099393 -0.038776 -0.15025 -0.044496 -0.017119 -0.11411 0.039892 0.022308 0.065771 0.14856 0.027022 0.12244 -0.13821 -0.07052 -0.018382 0.058453 -0.083543 -0.1011 -0.076207 0.094746 0.033193 -0.015352 -0.34581 0.03805 0.26604 -0.10264 0.057136 0.028349 -0.16097 0.078919 -0.058091 -0.052815 -0.063433 -0.10119 0.17601 -0.061621 -0.091938 0.10515 0.39867 0.14363 0.073485 0.0051176 0.022079 -0.27843 -0.12399 0.099806 -0.24516 -0.10034 -0.001921 0.10777 -0.23452 -0.054799 -0.045435 -0.28697 -0.03463 0.12229 0.10441 0.15442 -0.078262 0.038679 0.21959 0.20928 -0.26299 0.14508 0.14486 -0.03904 -0.014217 0.11729 -0.10457 -0.089507 0.15618 0.12897 -0.13797 0.19105 0.16467 0.14707 0.055059 -0.052578 -6.084e-05 0.063356 -0.019858 -0.32775 0.24631 0.086857 0.11762 0.023141 -0.13003 -0.030188 0.19359 -0.071497 0.24598 0.10835 -0.12506 -0.23334 -0.067742 -0.06 -0.052919 0.16017 
work 0.078089 0.13564 -0.104 -0.045185 -0.15877 -0.060704 -0.0058169 -0.12693 0.035914 0.028454 0.063979 0.16204 0.030331 0.12826 -0.13998 -0.085452 -0.00027148 0.071578 -0.087327 -0.092185 -0.079578 0.093342 0.030478 -0.024174 -0.37834 0.036457 0.28446 -0.11131 0.069549 0.021558 -0.15748 0.075942 -0.070753 -0.056302 -0.067817 -0.11181 0.19777 -0.078221 -0.086691 0.10416 0.41656 0.14888 0.08888 -0.0095907 0.029271 -0.29751 -0.12599 0.099715 -0.25829 -0.10338 0.018121 0.11774 -0.24473 -0.069799 -0.055522 -0.31756 -0.016042 0.12251 0.096285 0.16551 -0.088658 0.057669 0.2386 0.21548 -0.29604 0.1591 0.15087 -0.039133 -0.0221 0.12821 -0.10325 -0.11083 0.167 0.14734 -0.14455 0.21391 0.18162 0.16801 0.058525 -0.038913 0.0056035 0.075802 -0.031273 -0.35512 0.26982 0.089472 0.15058 0.036458 -0.13691 -0.028423 0.19457 -0.0763 0.24881 0.13341 -0.12462 -0.25666 -0.068429 -0.065955 -0.053489 0.17303 
#epflcampus 0.072745 0.11816 -0.096591 -0.037402 -0.14653 -0.04971 -0.011744 -0.11314 0.032019 0.026556 0.063082 0.1471 0.024227 0.114 -0.1345 -0.071282 -0.0079882 0.064571 -0.078905 -0.086153 -0.072968 0.088056 0.030838 -0.019809 -0.33478 0.036995 0.25803 -0.099433 0.066173 0.019915 -0.14687 0.076402 -0.061023 -0.048873 -0.06175 -0.099094 0.17852 -0.064117 -0.087506 0.097153 0.38118 0.13725 0.074341 -0.0047205 0.027041 -0.27063 -0.11422 0.093493 -0.23381 -0.098831 0.0069214 0.10185 -0.2234 -0.057983 -0.046897 -0.28082 -0.023034 0.11812 0.091024 0.15336 -0.079676 0.042391 0.21847 0.20331 -0.26428 0.14158 0.13854 -0.037579 -0.014182 0.11356 -0.10015 -0.09613 0.15325 0.12992 -0.12938 0.19147 0.16512 0.14516 0.051798 -0.04693 0.0015814 0.063496 -0.025973 -0.3215 0.24001 0.085514 0.12204 0.031378 -0.12327 -0.025243 0.18363 -0.070712 0.23117 0.11441 -0.11631 -0.23155 -0.064635 -0.060798 -0.045759 0.15518 
my 0.07965 0.12684 -0.11468 -0.044561 -0.15808 -0.063748 -0.011241 -0.12825 0.02907 0.032546 0.061128 0.17188 0.019489 0.11615 -0.1497 -0.087157 0.0061345 0.079129 -0.096809 -0.092459 -0.082991 0.085954 0.031657 -0.017917 -0.3786 0.038798 0.28546 -0.10797 0.076629 0.020605 -0.14789 0.078608 -0.073704 -0.054817 -0.080061 -0.11562 0.20459 -0.073066 -0.096306 0.10036 0.41371 0.14923 0.094677 -0.011601 0.033272 -0.30135 -0.11773 0.10864 -0.25046 -0.10602 0.011965 0.096081 -0.23917 -0.064345 -0.045429 -0.31428 -0.021039 0.11867 0.090521 0.15497 -0.096579 0.046008 0.24292 0.21651 -0.29806 0.14499 0.14808 -0.032058 -0.020712 0.13701 -0.11312 -0.11991 0.16233 0.1422 -0.12953 0.2038 0.18231 0.16441 0.055928 -0.050286 -0.0010276 0.068551 -0.035586 -0.3562 0.27218 0.09057 0.15248 0.046858 -0.13965 -0.024871 0.19978 -0.076661 0.23903 0.1332 -0.11024 -0.25901 -0.068972 -0.068376 -0.041479 0.17963 
? 0.072947 0.10396 -0.082262 -0.033139 -0.13321 -0.049299 -0.015243 -0.095905 0.025545 0.01686 0.064628 0.13708 0.014615 0.10021 -0.11661 -0.058305 -0.010969 0.049812 -0.062763 -0.086181 -0.059528 0.083329 0.026978 -0.015274 -0.30977 0.033027 0.24206 -0.095593 0.051315 0.028481 -0.14157 0.073521 -0.053461 -0.04712 -0.05595 -0.10088 0.15597 -0.054076 -0.077323 0.091386 0.35199 0.11989 0.070202 -0.0016622 0.023177 -0.24564 -0.10154 0.089786 -0.21187 -0.090056 0.0037063 0.091906 -0.20764 -0.050519 -0.044835 -0.2591 -0.025463 0.098661 0.080323 0.14096 -0.066472 0.039446 0.19621 0.18326 -0.23972 0.12958 0.12702 -0.033472 -0.007324 0.10445 -0.08319 -0.07412 0.14273 0.11191 -0.11647 0.1706 0.14782 0.12556 0.052789 -0.043458 0.0008768 0.058587 -0.024846 -0.2908 0.21276 0.076096 0.10881 0.031958 -0.1062 -0.021899 0.16915 -0.058795 0.20736 0.10059 -0.10833 -0.21346 -0.055006 -0.05692 -0.041603 0.13996 
research 0.088535 0.13236 -0.098451 -0.047604 -0.15816 -0.058793 -0.0094466 -0.12735 0.029037 0.029983 0.065023 0.16692 0.026992 0.12884 -0.1499 -0.084471 0.00052767 0.075969 -0.085628 -0.095021 -0.078305 0.091487 0.033184 -0.026033 -0.3807 0.037005 0.28252 -0.109 0.075149 0.023039 -0.16414 0.083464 -0.072438 -0.056695 -0.069817 -0.11228 0.20713 -0.074194 -0.094099 0.11032 0.42448 0.15669 0.091976 -0.0084191 0.032637 -0.30081 -0.12892 0.10277 -0.26183 -0.10948 0.018985 0.11167 -0.2508 -0.068537 -0.054815 -0.31655 -0.013959 0.12842 0.095623 0.1655 -0.088646 0.055225 0.24668 0.22717 -0.30689 0.16224 0.1498 -0.038209 -0.020507 0.1318 -0.10488 -0.11423 0.16969 0.15449 -0.13772 0.21318 0.1845 0.16886 0.060497 -0.047316 0.00013429 0.075366 -0.034567 -0.35887 0.27006 0.092435 0.1518 0.041329 -0.1408 -0.029835 0.2015 -0.079133 0.25576 0.13734 -0.12421 -0.26666 -0.071199 -0.072367 -0.04848 0.17574 
Learning 0.091078 0.14466 -0.11055 -0.047395 -0.17382 -0.060866 -0.010067 -0.13338 0.030623 0.034713 0.068953 0.17799 0.03048 0.1358 -0.15885 -0.09118 -0.004312 0.076735 -0.09488 -0.097413 -0.085727 0.097256 0.038948 -0.025022 -0.40366 0.042094 0.30417 -0.12161 0.07898 0.024445 -0.1664 0.084651 -0.07839 -0.054184 -0.079069 -0.1189 0.21505 -0.081554 -0.0956 0.11631 0.44924 0.16824 0.096715 -0.016246 0.033583 -0.31666 -0.14051 0.11159 -0.27344 -0.12212 0.015409 0.12171 -0.26188 -0.07267 -0.061304 -0.33646 -0.019284 0.13424 0.10366 0.17408 -0.096545 0.055245 0.25708 0.23879 -0.32047 0.16743 0.15774 -0.03406 -0.023006 0.13508 -0.11143 -0.11823 0.18146 0.16472 -0.14877 0.22785 0.19818 0.17452 0.061875 -0.05053 -0.0027038 0.077391 -0.029027 -0.37892 0.28416 0.10124 0.15424 0.037965 -0.14125 -0.030912 0.21216 -0.081856 0.26643 0.13792 -0.13184 -0.27857 -0.072265 -0.076429 -0.054328 0.18434 
@dgt_switzerland 0.067498 0.11285 -0.089387 -0.037626 -0.14037 -0.050729 -0.004973 -0.11131 0.029826 0.024757 0.061373 0.13807 0.026158 0.11102 -0.12198 -0.071017 -0.0066034 0.059307 -0.073674 -0.083517 -0.068717 0.080672 0.032344 -0.018588 -0.32664 0.032334 0.24574 -0.094223 0.060799 0.019728 -0.14041 0.070057 -0.062359 -0.049231 -0.058622 -0.094998 0.17236 -0.071082 -0.078167 0.093287 0.36858 0.13447 0.075378 -0.0056105 0.026004 -0.25916 -0.10937 0.09077 -0.23035 -0.096146 0.012902 0.10481 -0.21129 -0.059359 -0.047657 -0.27614 -0.01874 0.10956 0.086492 0.14903 -0.078923 0.047119 0.20389 0.19294 -0.25751 0.13894 0.13315 -0.033397 -0.015612 0.11126 -0.092682 -0.093262 0.14447 0.12498 -0.12595 0.18672 0.16159 0.14482 0.050076 -0.041823 0.0043052 0.066727 -0.024475 -0.31119 0.23192 0.078736 0.12458 0.027337 -0.12073 -0.024572 0.17543 -0.067384 0.22417 0.11053 -0.11352 -0.22449 -0.063211 -0.059697 -0.048804 0.14805 
up 0.080469 0.13216 -0.098823 -0.048896 -0.1579 -0.05588 -0.00989 -0.12439 0.03731 0.025564 0.067483 0.16235 0.029306 0.12554 -0.15278 -0.08057 -0.0018748 0.075661 -0.086598 -0.093789 -0.075371 0.090436 0.033104 -0.024318 -0.3656 0.037939 0.2828 -0.10852 0.07561 0.02206 -0.15566 0.078237 -0.070896 -0.052677 -0.072469 -0.10759 0.19528 -0.067436 -0.091128 0.099202 0.4123 0.14796 0.085999 -0.011717 0.031293 -0.29348 -0.1254 0.10498 -0.24829 -0.10342 0.0123 0.11389 -0.23287 -0.065878 -0.048836 -0.30386 -0.016029 0.12576 0.094202 0.15899 -0.090183 0.055186 0.23315 0.21226 -0.2978 0.15701 0.15023 -0.029251 -0.019071 0.12701 -0.10486 -0.10625 0.16401 0.14133 -0.13961 0.20691 0.18552 0.16217 0.059794 -0.052455 0.0063898 0.071335 -0.032876 -0.34573 0.25796 0.08406 0.13809 0.039776 -0.12915 -0.021807 0.19301 -0.078074 0.24473 0.12587 -0.11635 -0.25292 -0.066018 -0.061378 -0.046263 0.16918 
day 0.088801 0.13211 -0.10181 -0.050312 -0.16404 -0.058374 -0.01076 -0.12867 0.030246 0.031445 0.06847 0.16319 0.028866 0.1307 -0.14871 -0.088287 -0.00071991 0.075778 -0.086245 -0.091274 -0.081866 0.097293 0.032219 -0.019907 -0.39493 0.039571 0.2951 -0.11541 0.075385 0.02505 -0.16486 0.085498 -0.075687 -0.056208 -0.072859 -0.11043 0.20404 -0.078818 -0.088366 0.10602 0.42843 0.15476 0.092469 -0.01354 0.030123 -0.2964 -0.13306 0.10469 -0.26224 -0.10999 0.018177 0.11473 -0.25091 -0.07154 -0.05272 -0.31725 -0.017828 0.13252 0.10239 0.16202 -0.093131 0.055449 0.24829 0.23058 -0.30656 0.15525 0.15156 -0.039423 -0.020741 0.13257 -0.10334 -0.10883 0.17165 0.15201 -0.14069 0.21901 0.18714 0.16781 0.058535 -0.046884 -0.004587 0.072786 -0.030925 -0.36266 0.27552 0.095891 0.14834 0.035861 -0.13999 -0.031262 0.20319 -0.080635 0.25706 0.13194 -0.12556 -0.26655 -0.069777 -0.065953 -0.046078 0.17415 
This 0.083521 0.13108 -0.097994 -0.045212 -0.14929 -0.058415 -0.01339 -0.11898 0.031616 0.027428 0.058487 0.16165 0.023732 0.12001 -0.14339 -0.082502 -0.00056195 0.068179 -0.084316 -0.089256 -0.076224 0.08809 0.033476 -0.018134 -0.36003 0.03858 0.27049 -0.10349 0.06928 0.02308 -0.15291 0.079725 -0.066619 -0.050202 -0.069162 -0.10962 0.1947 -0.071437 -0.08875 0.10619 0.40414 0.14951 0.085651 -0.012371 0.026097 -0.28069 -0.12297 0.098504 -0.24439 -0.10621 0.018821 0.10618 -0.23535 -0.068675 -0.050047 -0.30379 -0.013497 0.12551 0.093692 0.15955 -0.086041 0.052122 0.23457 0.21222 -0.2937 0.14991 0.14224 -0.034572 -0.020327 0.12558 -0.098588 -0.10399 0.16098 0.14123 -0.13524 0.20456 0.1749 0.15484 0.056107 -0.041363 -0.0013036 0.069913 -0.030886 -0.33917 0.25869 0.091101 0.14376 0.036962 -0.13055 -0.023696 0.18803 -0.074824 0.23746 0.12955 -0.12059 -0.25151 -0.066121 -0.064724 -0.04265 0.16776 
Un 0.062963 0.10665 -0.086372 -0.037112 -0.12924 -0.046433 -0.015248 -0.097961 0.03335 0.019074 0.061502 0.12926 0.025776 0.10315 -0.11858 -0.071819 -0.010215 0.053615 -0.065701 -0.085605 -0.064506 0.074356 0.037055 -0.015639 -0.30005 0.030207 0.23236 -0.095652 0.059073 0.018967 -0.13616 0.071308 -0.05058 -0.043471 -0.057374 -0.08958 0.16283 -0.05818 -0.079866 0.092654 0.34765 0.12246 0.06443 0.0014687 0.024754 -0.24635 -0.10332 0.084932 -0.21328 -0.083981 5.2039e-05 0.091837 -0.20928 -0.049942 -0.042371 -0.25281 -0.022234 0.11107 0.088518 0.13924 -0.070017 0.035193 0.19681 0.18263 -0.22902 0.1308 0.13172 -0.033121 -0.014793 0.10331 -0.090632 -0.076005 0.13553 0.1123 -0.11842 0.17 0.14641 0.12851 0.051491 -0.04367 -0.0014353 0.052072 -0.020888 -0.29505 0.20865 0.082403 0.10389 0.023446 -0.11384 -0.027325 0.16534 -0.057763 0.20765 0.098397 -0.1069 -0.2091 -0.058543 -0.056237 -0.04468 0.14093 
his 0.091059 0.13371 -0.099443 -0.049899 -0.15191 -0.064726 -0.0099409 -0.12457 0.035341 0.034227 0.0647 0.16235 0.027631 0.1278 -0.1469 -0.08681 0.0028738 0.073766 -0.083407 -0.093168 -0.078184 0.091635 0.030839 -0.022844 -0.37467 0.040364 0.28231 -0.10313 0.072365 0.022305 -0.15926 0.080977 -0.069714 -0.047985 -0.073231 -0.10956 0.20553 -0.072406 -0.087056 0.10954 0.42112 0.15492 0.089938 -0.01188 0.027354 -0.29248 -0.12938 0.10368 -0.25823 -0.11017 0.02249 0.10874 -0.24055 -0.07312 -0.048209 -0.31423 -0.012563 0.12293 0.094718 0.16451 -0.08594 0.051861 0.24057 0.22286 -0.30346 0.15224 0.15167 -0.039574 -0.020925 0.12735 -0.10243 -0.11055 0.16777 0.14997 -0.13326 0.21591 0.18592 0.16253 0.059447 -0.040931 -0.00094964 0.073865 -0.036801 -0.35236 0.26884 0.093747 0.14519 0.037856 -0.13484 -0.024423 0.19562 -0.078314 0.24952 0.13797 -0.12802 -0.26074 -0.067499 -0.066001 -0.045379 0.17219 
out 0.093948 0.14297 -0.10846 -0.05626 -0.17618 -0.066555 -0.012884 -0.13752 0.037088 0.031193 0.075778 0.17778 0.025866 0.13688 -0.16068 -0.091248 -0.0044033 0.076546 -0.095308 -0.10059 -0.088352 0.10036 0.039428 -0.019352 -0.40988 0.04172 0.30478 -0.12171 0.082 0.027854 -0.17321 0.087366 -0.078579 -0.053778 -0.073468 -0.12269 0.22289 -0.08195 -0.095313 0.11493 0.45678 0.16859 0.096612 -0.010758 0.033331 -0.31789 -0.14319 0.11265 -0.27787 -0.11699 0.021027 0.11771 -0.26815 -0.069965 -0.058568 -0.3414 -0.015095 0.14112 0.10228 0.1786 -0.09546 0.061409 0.26383 0.24141 -0.3278 0.16738 0.16376 -0.039419 -0.020899 0.13786 -0.10948 -0.11884 0.18207 0.16551 -0.15003 0.23125 0.20055 0.17765 0.057678 -0.051509 -0.00067569 0.07875 -0.0324 -0.38711 0.2907 0.10095 0.16229 0.037252 -0.14662 -0.027566 0.21263 -0.085403 0.27262 0.14583 -0.13409 -0.28747 -0.074763 -0.073876 -0.051578 0.18847 
We 0.083287 0.13349 -0.093237 -0.048313 -0.1542 -0.059426 -0.0073686 -0.12094 0.036461 0.034376 0.066011 0.16268 0.028128 0.12931 -0.14163 -0.082508 -0.006246 0.072129 -0.084654 -0.088347 -0.079128 0.090198 0.035146 -0.029075 -0.37106 0.041992 0.28186 -0.10544 0.069105 0.023157 -0.16574 0.077283 -0.06954 -0.049123 -0.07338 -0.10773 0.20295 -0.070275 -0.092543 0.10694 0.41253 0.14881 0.086447 -0.018486 0.028469 -0.29935 -0.12897 0.10055 -0.252 -0.11215 0.013674 0.11471 -0.24577 -0.069981 -0.050366 -0.31904 -0.019524 0.12567 0.094695 0.16087 -0.085222 0.056668 0.24146 0.22426 -0.29676 0.15762 0.14747 -0.036245 -0.012807 0.12464 -0.10502 -0.10599 0.16597 0.14062 -0.13759 0.20267 0.17099 0.16385 0.056735 -0.048465 -0.0023259 0.070665 -0.024366 -0.35247 0.26327 0.09156 0.14628 0.044326 -0.13818 -0.030324 0.19745 -0.075112 0.24956 0.13207 -0.12163 -0.2526 -0.068107 -0.065308 -0.047564 0.16753 
but 0.088341 0.13672 -0.099026 -0.055299 -0.17026 -0.061028 -0.014573 -0.12915 0.030469 0.026641 0.069779 0.17126 0.027733 0.12769 -0.15349 -0.08282 0.0037046 0.079024 -0.092069 -0.097071 -0.092671 0.095205 0.036086 -0.017365 -0.3925 0.043406 0.29464 -0.11089 0.08059 0.027165 -0.16725 0.090245 -0.076887 -0.054856 -0.070113 -0.11483 0.21343 -0.077916 -0.094637 0.10898 0.44021 0.15589 0.094564 -0.01176 0.032517 -0.30383 -0.13655 0.11182 -0.26272 -0.11506 0.018686 0.113 -0.25787 -0.067133 -0.05194 -0.32514 -0.01734 0.13713 0.10536 0.17313 -0.090632 0.057231 0.24883 0.22694 -0.31947 0.15801 0.15944 -0.03971 -0.023245 0.12835 -0.10402 -0.11912 0.16947 0.15477 -0.14791 0.22139 0.19058 0.16892 0.056442 -0.048779 0.00048142 0.076736 -0.035749 -0.37249 0.2766 0.097862 0.14782 0.041205 -0.13839 -0.02497 0.20802 -0.080641 0.26316 0.13702 -0.1273 -0.27163 -0.069259 -0.065647 -0.045602 0.182 
Thanks 0.071502 0.1119 -0.087276 -0.039019 -0.13464 -0.049858 -0.0079349 -0.10741 0.027614 0.023759 0.05606 0.13577 0.024514 0.10952 -0.12489 -0.07027 -0.0024235 0.060967 -0.076935 -0.083263 -0.065149 0.080316 0.027738 -0.020215 -0.31901 0.03194 0.24383 -0.097766 0.064835 0.020955 -0.13468 0.073136 -0.06039 -0.04835 -0.058799 -0.094596 0.16935 -0.066283 -0.080865 0.09082 0.35604 0.12886 0.074851 -0.0068198 0.028466 -0.25285 -0.10895 0.087292 -0.219 -0.092224 0.010969 0.094597 -0.21069 -0.058337 -0.043671 -0.26664 -0.016233 0.10927 0.081347 0.14242 -0.077419 0.045311 0.20258 0.19087 -0.25077 0.13333 0.13125 -0.033087 -0.015563 0.1064 -0.090417 -0.089505 0.14052 0.12742 -0.12385 0.1805 0.15602 0.13733 0.047128 -0.040068 0.0033575 0.065281 -0.02461 -0.3044 0.22585 0.07798 0.1237 0.03115 -0.11452 -0.021576 0.1699 -0.066327 0.21723 0.11103 -0.10679 -0.22077 -0.062066 -0.05642 -0.044902 0.14692 
#AI 0.087232 0.14068 -0.099325 -0.049898 -0.16653 -0.060934 -0.014163 -0.12542 0.028703 0.031641 0.069814 0.16924 0.031946 0.13102 -0.14908 -0.085278 -0.0023527 0.079059 -0.08389 -0.095441 -0.083538 0.095469 0.035398 -0.024542 -0.38086 0.041743 0.29407 -0.11027 0.076995 0.025966 -0.16327 0.084652 -0.064675 -0.053624 -0.069622 -0.11622 0.20173 -0.081084 -0.093486 0.10566 0.43372 0.15896 0.093142 -0.0095944 0.032579 -0.30346 -0.1346 0.10596 -0.26401 -0.10531 0.011889 0.11125 -0.25198 -0.062101 -0.054629 -0.3221 -0.013422 0.12646 0.098639 0.1701 -0.091226 0.058581 0.24789 0.23167 -0.30904 0.15802 0.1587 -0.037778 -0.018759 0.13376 -0.10104 -0.11244 0.16885 0.15195 -0.14308 0.21006 0.18065 0.16701 0.057311 -0.043825 0.0032348 0.074712 -0.030975 -0.36605 0.27147 0.095109 0.14245 0.038528 -0.13899 -0.024327 0.20384 -0.080386 0.2631 0.1341 -0.12469 -0.26232 -0.075539 -0.068307 -0.05346 0.17613 
made 0.082249 0.12684 -0.10503 -0.04667 -0.15919 -0.059506 -0.01056 -0.12302 0.034787 0.026461 0.071984 0.1639 0.026891 0.12895 -0.14775 -0.085096 -0.0057236 0.071604 -0.087175 -0.092752 -0.08063 0.09291 0.040913 -0.025224 -0.36945 0.039109 0.28199 -0.10899 0.07056 0.023177 -0.1635 0.081251 -0.073609 -0.057094 -0.067834 -0.10852 0.19852 -0.074252 -0.094833 0.10497 0.41989 0.14981 0.086405 -0.0072486 0.02649 -0.29453 -0.12474 0.10559 -0.25866 -0.10537 0.010759 0.11437 -0.24422 -0.066995 -0.052191 -0.31497 -0.016878 0.12505 0.097679 0.1687 -0.091555 0.051971 0.23922 0.22272 -0.29925 0.15803 0.15302 -0.038661 -0.01927 0.13042 -0.10847 -0.10786 0.15988 0.14423 -0.14042 0.21173 0.17964 0.16431 0.054645 -0.047443 0.0041938 0.07282 -0.026327 -0.35507 0.26607 0.089073 0.14362 0.033919 -0.13561 -0.02976 0.19956 -0.079854 0.25499 0.13124 -0.12442 -0.2566 -0.071535 -0.063896 -0.045431 0.1735 
see 0.081552 0.13262 -0.099908 -0.045141 -0.16121 -0.060113 -0.015176 -0.12498 0.033953 0.026354 0.067278 0.1581 0.027641 0.12508 -0.14312 -0.082374 -0.0078423 0.066153 -0.082596 -0.098028 -0.082087 0.093716 0.035749 -0.025621 -0.37029 0.038265 0.28272 -0.10607 0.078123 0.022665 -0.16203 0.086373 -0.06887 -0.054025 -0.066489 -0.11036 0.19541 -0.073388 -0.095501 0.10977 0.41523 0.15693 0.085379 -0.0049079 0.032608 -0.29831 -0.12935 0.10093 -0.25682 -0.10606 0.0058943 0.10713 -0.24303 -0.065004 -0.048383 -0.31199 -0.018969 0.12615 0.10369 0.16502 -0.083425 0.045722 0.23984 0.21899 -0.29667 0.15456 0.14848 -0.038938 -0.018997 0.12733 -0.10397 -0.10617 0.16307 0.15027 -0.14072 0.20676 0.1824 0.15909 0.061097 -0.048768 0.002583 0.073114 -0.030239 -0.3586 0.25953 0.095114 0.13442 0.036085 -0.13807 -0.025672 0.20598 -0.078871 0.25247 0.13104 -0.12752 -0.26368 -0.069561 -0.063795 -0.048381 0.16666 
#Lausanne 0.070594 0.11906 -0.097095 -0.03245 -0.14574 -0.046849 -0.01141 -0.11554 0.032762 0.026489 0.063129 0.14458 0.028618 0.11269 -0.1339 -0.070898 -0.013145 0.057162 -0.076 -0.091098 -0.07426 0.087682 0.03313 -0.017658 -0.34422 0.036715 0.26408 -0.10251 0.066325 0.026074 -0.15603 0.079477 -0.056622 -0.050542 -0.064903 -0.10121 0.17448 -0.062698 -0.08475 0.098267 0.38274 0.13611 0.073775 -0.00057581 0.028273 -0.2708 -0.11973 0.09237 -0.23603 -0.09819 0.0030512 0.10378 -0.22279 -0.057038 -0.048986 -0.27935 -0.024764 0.11739 0.095471 0.15185 -0.07453 0.041125 0.21736 0.20427 -0.25882 0.14269 0.13991 -0.035563 -0.012605 0.11464 -0.10273 -0.093992 0.15114 0.12731 -0.13021 0.19263 0.16579 0.14269 0.051415 -0.047337 -0.0001624 0.061236 -0.025292 -0.32399 0.23743 0.086807 0.1174 0.024438 -0.12423 -0.026308 0.18674 -0.069035 0.23503 0.11084 -0.11949 -0.23234 -0.063596 -0.061507 -0.046241 0.15469 
one 0.078862 0.12884 -0.10427 -0.042669 -0.15612 -0.052613 -0.013218 -0.1255 0.034309 0.02927 0.065329 0.15837 0.022161 0.12214 -0.14286 -0.082406 -0.010224 0.066246 -0.079777 -0.092201 -0.080916 0.092424 0.037074 -0.019937 -0.36684 0.033362 0.27918 -0.10806 0.071153 0.021748 -0.15803 0.086117 -0.064553 -0.052643 -0.071052 -0.11045 0.19535 -0.070614 -0.090032 0.10605 0.41301 0.15119 0.081679 -0.0082498 0.025659 -0.29392 -0.13027 0.09903 -0.2558 -0.10464 0.012029 0.10892 -0.24649 -0.069149 -0.050046 -0.30743 -0.020039 0.12295 0.093637 0.16674 -0.083085 0.047763 0.23775 0.21718 -0.29001 0.15248 0.15364 -0.041012 -0.01968 0.12288 -0.10303 -0.10769 0.1656 0.14434 -0.14065 0.20393 0.18059 0.15931 0.054931 -0.040766 -0.00040934 0.07278 -0.029793 -0.35393 0.26583 0.093649 0.13596 0.033135 -0.13591 -0.026154 0.19814 -0.077243 0.24826 0.12657 -0.12498 -0.25712 -0.06766 -0.069486 -0.047331 0.17286 
aux 0.063387 0.11033 -0.086774 -0.031433 -0.13786 -0.03875 -0.016074 -0.10331 0.035794 0.024072 0.061515 0.13397 0.021001 0.10384 -0.11776 -0.067604 -0.016097 0.05447 -0.072581 -0.083273 -0.067689 0.083536 0.035276 -0.016642 -0.30657 0.035733 0.23713 -0.091056 0.054142 0.015834 -0.13768 0.073897 -0.050497 -0.046678 -0.058693 -0.091614 0.15563 -0.057335 -0.077714 0.088605 0.34928 0.12353 0.064487 -0.0016412 0.021766 -0.25157 -0.11019 0.08931 -0.2174 -0.082924 -0.0046861 0.094849 -0.20962 -0.050975 -0.042351 -0.25467 -0.027595 0.10792 0.095874 0.13781 -0.074757 0.040328 0.19626 0.1841 -0.2338 0.12613 0.13144 -0.037646 -0.013016 0.10568 -0.095712 -0.079427 0.13691 0.11297 -0.11981 0.17316 0.14926 0.12997 0.047253 -0.048084 0.0028756 0.053985 -0.020088 -0.29502 0.21661 0.078543 0.10697 0.021179 -0.11317 -0.022513 0.17145 -0.063341 0.21574 0.098618 -0.11028 -0.21523 -0.059833 -0.054521 -0.046246 0.13798 
